{"learner":{"attributes":{},"feature_names":["day_of_week","hour_of_day"],"feature_types":[],"gradient_booster":{"model":{"cats":{"enc":[],"feature_segments":[],"sorted_idx":[]},"gbtree_model_param":{"num_parallel_tree":"1","num_trees":"50"},"iteration_indptr":[0,1,2,3,4,5,6,7,8,9,10,11,12,13,14,15,16,17,18,19,20,21,22,23,24,25,26,27,28,29,30,31,32,33,34,35,36,37,38,39,40,41,42,43,44,45,46,47,48,49,50],"tree_info":[0,0,0,0,0,0,0,0,0,0,0,0,0,0,0,0,0,0,0,0,0,0,0,0,0,0,0,0,0,0,0,0,0,0,0,0,0,0,0,0,0,0,0,0,0,0,0,0,0,0],"trees":[{"base_weights":[1.7609908E-7,-9.913577E0,1.1862597E0,-1.0450489E1,-6.475398E0,3.1185973E0,-4.546718E0,-1.1674149E0,-9.146684E-1,-2.856091E-1,-8.3009523E-1,-1.9714193E0,3.8217866E0,-2.4238496E0,-7.118378E0,2.8695258E-1,-7.508225E-1,4.4751176E-1,1.0672845E-1,-4.732082E-1,-1.06647514E-1,-1.0198624E0,-5.661749E-1],"categories":[],"categories_nodes":[],"categories_segments":[],"categories_sizes":[],"default_left":[0,0,0,0,0,0,0,0,0,0,0,0,0,0,0,0,0,0,0,0,0,0,0],"id":0,"left_children":[1,3,5,7,9,11,13,-1,-1,-1,-1,15,17,19,21,-1,-1,-1,-1,-1,-1,-1,-1],"loss_changes":[5.7330367E4,8.9409375E2,4.8248004E4,6.095625E2,4.5862036E2,1.1665137E4,5.9770527E3,0E0,0E0,0E0,0E0,1.0635679E4,5.1456875E3,1.8842341E3,2.1676973E3,0E0,0E0,0E0,0E0,0E0,0E0,0E0,0E0],"parents":[2147483647,0,0,1,1,2,2,3,3,4,4,5,5,6,6,11,11,12,12,13,13,14,14],"right_children":[2,4,6,8,10,12,14,-1,-1,-1,-1,16,18,20,22,-1,-1,-1,-1,-1,-1,-1,-1],"split_conditions":[4E0,3E0,2E1,5E0,2E0,7E0,2.2E1,-1.1674149E0,-9.146684E-1,-2.856091E-1,-8.3009523E-1,5E0,1.8E1,4E0,4E0,2.8695258E-1,-7.508225E-1,4.4751176E-1,1.0672845E-1,-4.732082E-1,-1.06647514E-1,-1.0198624E0,-5.661749E-1],"split_indices":[1,1,1,0,0,1,1,0,0,0,0,0,1,0,0,0,0,0,0,0,0,0,0],"split_type":[0,0,0,0,0,0,0,0,0,0,0,0,0,0,0,0,0,0,0,0,0,0,0],"sum_hessian":[4.873E3,5.2E2,4.353E3,4.48E2,7.2E1,3.256E3,1.097E3,2.27E2,2.21E2,2.5E1,4.7E1,3.95E2,2.861E3,6.02E2,4.95E2,2.11E2,1.84E2,2.312E3,5.49E2,2.22E2,3.8E2,1.57E2,3.38E2],"tree_param":{"num_deleted":"0","num_feature":"2","num_nodes":"23","size_leaf_vector":"1"}},{"base_weights":[-1.0818127E-3,-8.928358E0,1.067157E0,-9.410078E0,-5.843142E0,2.8067653E0,-4.0940194E0,-1.0511855E0,-8.2361364E-1,-2.5814664E-1,-7.4881506E-1,-1.7754492E0,3.4398017E0,-2.1824262E0,-6.409738E0,2.5839266E-1,-6.761461E-1,3.8417253E-1,-3.2487124E-2,-4.2609954E-1,-9.601077E-2,-9.185216E-1,-5.097245E-1],"categories":[],"categories_nodes":[],"categories_segments":[],"categories_sizes":[],"default_left":[0,0,0,0,0,0,0,0,0,0,0,0,0,0,0,0,0,0,0,0,0,0,0],"id":1,"left_children":[1,3,5,7,9,11,13,-1,-1,-1,-1,15,17,19,21,-1,-1,-1,-1,-1,-1,-1,-1],"loss_changes":[4.649025E4,7.1933203E2,3.910355E4,4.9416406E2,3.723501E2,9.453713E3,4.846543E3,0E0,0E0,0E0,0E0,8.624886E3,4.3317734E3,1.5279355E3,1.7600059E3,0E0,0E0,0E0,0E0,0E0,0E0,0E0,0E0],"parents":[2147483647,0,0,1,1,2,2,3,3,4,4,5,5,6,6,11,11,12,12,13,13,14,14],"right_children":[2,4,6,8,10,12,14,-1,-1,-1,-1,16,18,20,22,-1,-1,-1,-1,-1,-1,-1,-1],"split_conditions":[4E0,3E0,2E1,5E0,2E0,7E0,2.2E1,-1.0511855E0,-8.2361364E-1,-2.5814664E-1,-7.4881506E-1,5E0,1.9E1,4E0,4E0,2.5839266E-1,-6.761461E-1,3.8417253E-1,-3.2487124E-2,-4.2609954E-1,-9.601077E-2,-9.185216E-1,-5.097245E-1],"split_indices":[1,1,1,0,0,1,1,0,0,0,0,0,1,0,0,0,0,0,0,0,0,0,0],"split_type":[0,0,0,0,0,0,0,0,0,0,0,0,0,0,0,0,0,0,0,0,0,0,0],"sum_hessian":[4.873E3,5.2E2,4.353E3,4.48E2,7.2E1,3.256E3,1.097E3,2.27E2,2.21E2,2.5E1,4.7E1,3.95E2,2.861E3,6.02E2,4.95E2,2.11E2,1.84E2,2.585E3,2.76E2,2.22E2,3.8E2,1.57E2,3.38E2],"tree_param":{"num_deleted":"0","num_feature":"2","num_nodes":"23","size_leaf_vector":"1"}},{"base_weights":[-1.978478E-3,-8.041053E0,9.5997834E-1,-8.473246E0,-5.2726216E0,2.2699437E0,-4.6462493E0,-9.465279E-1,-7.4162334E-1,-2.3332489E-1,-6.7549354E-1,-1.5989588E0,2.7579231E0,-6.969078E0,-3.5099006E0,2.326753E-1,-6.088969E-1,3.4577015E-1,-5.3732175E-2,-5.084911E-1,-8.272508E-1,-2.1620019E-1,-6.8034285E-1],"categories":[],"categories_nodes":[],"categories_segments":[],"categories_sizes":[],"default_left":[0,0,0,0,0,0,0,0,0,0,0,0,0,0,0,0,0,0,0,0,0,0,0],"id":2,"left_children":[1,3,5,7,9,11,13,-1,-1,-1,-1,15,17,19,21,-1,-1,-1,-1,-1,-1,-1,-1],"loss_changes":[3.7699543E4,5.786953E2,3.1986168E4,4.006211E2,3.0230566E2,6.6688555E3,2.153162E3,0E0,0E0,0E0,0E0,6.994256E3,7.2309824E3,6.2102246E2,2.453565E3,0E0,0E0,0E0,0E0,0E0,0E0,0E0,0E0],"parents":[2147483647,0,0,1,1,2,2,3,3,4,4,5,5,6,6,11,11,12,12,13,13,14,14],"right_children":[2,4,6,8,10,12,14,-1,-1,-1,-1,16,18,20,22,-1,-1,-1,-1,-1,-1,-1,-1],"split_conditions":[4E0,3E0,2.1E1,5E0,2E0,7E0,4E0,-9.465279E-1,-7.4162334E-1,-2.3332489E-1,-6.7549354E-1,5E0,1.9E1,2.2E1,7E0,2.326753E-1,-6.088969E-1,3.4577015E-1,-5.3732175E-2,-5.084911E-1,-8.272508E-1,-2.1620019E-1,-6.8034285E-1],"split_indices":[1,1,1,0,0,1,0,0,0,0,0,0,1,1,0,0,0,0,0,0,0,0,0],"split_type":[0,0,0,0,0,0,0,0,0,0,0,0,0,0,0,0,0,0,0,0,0,0,0],"sum_hessian":[4.873E3,5.2E2,4.353E3,4.48E2,7.2E1,3.529E3,8.24E2,2.27E2,2.21E2,2.5E1,4.7E1,3.95E2,3.134E3,2.69E2,5.55E2,2.11E2,1.84E2,2.585E3,5.49E2,1.12E2,1.57E2,3.95E2,1.6E2],"tree_param":{"num_deleted":"0","num_feature":"2","num_nodes":"23","size_leaf_vector":"1"}},{"base_weights":[-2.7886808E-3,-7.241933E0,8.6344856E-1,-7.6296816E0,-4.757809E0,2.0429256E0,-4.1843305E0,-8.5229033E-1,-6.677951E-1,-2.108898E-1,-6.093515E-1,-1.440013E0,2.4822242E0,-6.2771177E0,-3.1605232E0,2.0951748E-1,-5.483363E-1,3.2981727E-1,1.8602608E-2,-4.5809194E-1,-7.450493E-1,-1.9440949E-1,-6.380872E-1],"categories":[],"categories_nodes":[],"categories_segments":[],"categories_sizes":[],"default_left":[0,0,0,0,0,0,0,0,0,0,0,0,0,0,0,0,0,0,0,0,0,0,0],"id":3,"left_children":[1,3,5,7,9,11,13,-1,-1,-1,-1,15,17,19,21,-1,-1,-1,-1,-1,-1,-1,-1],"loss_changes":[3.0570213E4,4.655332E2,2.5931133E4,3.2478125E2,2.4543567E2,5.4046504E3,1.7478145E3,0E0,0E0,0E0,0E0,5.6719136E3,5.8730566E3,5.0324512E2,2.165627E3,0E0,0E0,0E0,0E0,0E0,0E0,0E0,0E0],"parents":[2147483647,0,0,1,1,2,2,3,3,4,4,5,5,6,6,11,11,12,12,13,13,14,14],"right_children":[2,4,6,8,10,12,14,-1,-1,-1,-1,16,18,20,22,-1,-1,-1,-1,-1,-1,-1,-1],"split_conditions":[4E0,3E0,2.1E1,5E0,2E0,7E0,4E0,-8.5229033E-1,-6.677951E-1,-2.108898E-1,-6.093515E-1,5E0,1.8E1,2.2E1,2.3E1,2.0951748E-1,-5.483363E-1,3.2981727E-1,1.8602608E-2,-4.5809194E-1,-7.450493E-1,-1.9440949E-1,-6.380872E-1],"split_indices":[1,1,1,0,0,1,0,0,0,0,0,0,1,1,1,0,0,0,0,0,0,0,0],"split_type":[0,0,0,0,0,0,0,0,0,0,0,0,0,0,0,0,0,0,0,0,0,0,0],"sum_hessian":[4.873E3,5.2E2,4.353E3,4.48E2,7.2E1,3.529E3,8.24E2,2.27E2,2.21E2,2.5E1,4.7E1,3.95E2,3.134E3,2.69E2,5.55E2,2.11E2,1.84E2,2.312E3,8.22E2,1.12E2,1.57E2,4.04E2,1.51E2],"tree_param":{"num_deleted":"0","num_feature":"2","num_nodes":"23","size_leaf_vector":"1"}},{"base_weights":[-3.4054243E-3,-6.5222316E0,7.766386E-1,-6.8700986E0,-4.2932644E0,2.0556645E0,-3.0180461E0,-7.6743513E-1,-6.013164E-1,-1.9061193E-1,-5.496859E-1,-5.6226045E-1,2.7186723E0,-1.5856715E0,-4.7533364E0,2.4551728E-1,-3.8854122E-1,3.2795644E-1,6.2313076E-2,-3.334019E-1,-5.581987E-2,-6.710159E-1,-3.8272855E-1],"categories":[],"categories_nodes":[],"categories_segments":[],"categories_sizes":[],"default_left":[0,0,0,0,0,0,0,0,0,0,0,0,0,0,0,0,0,0,0,0,0,0,0],"id":4,"left_children":[1,3,5,7,9,11,13,-1,-1,-1,-1,15,17,19,21,-1,-1,-1,-1,-1,-1,-1,-1],"loss_changes":[2.4789217E4,3.7448047E2,2.1138344E4,2.6330078E2,1.9926257E2,5.6547188E3,2.7216348E3,0E0,0E0,0E0,0E0,6.617589E3,3.05275E3,1.0813557E3,8.731299E2,0E0,0E0,0E0,0E0,0E0,0E0,0E0,0E0],"parents":[2147483647,0,0,1,1,2,2,3,3,4,4,5,5,6,6,11,11,12,12,13,13,14,14],"right_children":[2,4,6,8,10,12,14,-1,-1,-1,-1,16,18,20,22,-1,-1,-1,-1,-1,-1,-1,-1],"split_conditions":[4E0,3E0,2E1,5E0,2E0,9E0,2.2E1,-7.6743513E-1,-6.013164E-1,-1.9061193E-1,-5.496859E-1,5E0,1.8E1,4E0,4E0,2.4551728E-1,-3.8854122E-1,3.2795644E-1,6.2313076E-2,-3.334019E-1,-5.581987E-2,-6.710159E-1,-3.8272855E-1],"split_indices":[1,1,1,0,0,1,1,0,0,0,0,0,1,0,0,0,0,0,0,0,0,0,0],"split_type":[0,0,0,0,0,0,0,0,0,0,0,0,0,0,0,0,0,0,0,0,0,0,0],"sum_hessian":[4.873E3,5.2E2,4.353E3,4.48E2,7.2E1,3.256E3,1.097E3,2.27E2,2.21E2,2.5E1,4.7E1,6.58E2,2.598E3,6.02E2,4.95E2,3.45E2,3.13E2,2.049E3,5.49E2,2.22E2,3.8E2,1.57E2,3.38E2],"tree_param":{"num_deleted":"0","num_feature":"2","num_nodes":"23","size_leaf_vector":"1"}},{"base_weights":[-3.7429591E-3,-5.8740563E0,6.9870013E-1,-6.186137E0,-3.8740795E0,1.6620045E0,-3.4239218E0,-6.910282E-1,-5.414556E-1,-1.7228387E-1,-4.9586248E-1,-5.0625163E-1,2.158947E0,-5.1253786E0,-2.5915167E0,2.2103648E-1,-3.4981084E-1,2.775791E-1,-4.5030273E-2,-3.7964302E-1,-6.0433906E-1,-1.4124124E-1,-5.475578E-1],"categories":[],"categories_nodes":[],"categories_segments":[],"categories_sizes":[],"default_left":[0,0,0,0,0,0,0,0,0,0,0,0,0,0,0,0,0,0,0,0,0,0,0],"id":5,"left_children":[1,3,5,7,9,11,13,-1,-1,-1,-1,15,17,19,21,-1,-1,-1,-1,-1,-1,-1,-1],"loss_changes":[2.010234E4,3.0121875E2,1.7296906E4,2.1345703E2,1.6177466E2,3.804663E3,1.155166E3,0E0,0E0,0E0,0E0,5.3639043E3,4.6237334E3,3.064541E2,1.8830051E3,0E0,0E0,0E0,0E0,0E0,0E0,0E0,0E0],"parents":[2147483647,0,0,1,1,2,2,3,3,4,4,5,5,6,6,11,11,12,12,13,13,14,14],"right_children":[2,4,6,8,10,12,14,-1,-1,-1,-1,16,18,20,22,-1,-1,-1,-1,-1,-1,-1,-1],"split_conditions":[4E0,3E0,2.1E1,5E0,2E0,9E0,4E0,-6.910282E-1,-5.414556E-1,-1.7228387E-1,-4.9586248E-1,5E0,1.9E1,2.2E1,7E0,2.2103648E-1,-3.4981084E-1,2.775791E-1,-4.5030273E-2,-3.7964302E-1,-6.0433906E-1,-1.4124124E-1,-5.475578E-1],"split_indices":[1,1,1,0,0,1,0,0,0,0,0,0,1,1,0,0,0,0,0,0,0,0,0],"split_type":[0,0,0,0,0,0,0,0,0,0,0,0,0,0,0,0,0,0,0,0,0,0,0],"sum_hessian":[4.873E3,5.2E2,4.353E3,4.48E2,7.2E1,3.529E3,8.24E2,2.27E2,2.21E2,2.5E1,4.7E1,6.58E2,2.871E3,2.69E2,5.55E2,3.45E2,3.13E2,2.322E3,5.49E2,1.12E2,1.57E2,3.95E2,1.6E2],"tree_param":{"num_deleted":"0","num_feature":"2","num_nodes":"23","size_leaf_vector":"1"}},{"base_weights":[-4.0805736E-3,-5.290299E0,6.284697E-1,-5.5702686E0,-3.4958239E0,1.4958334E0,-3.0835574E0,-6.2222844E-1,-4.8755392E-1,-1.5571807E-1,-4.4730926E-1,-1.7215027E0,1.7821734E0,-2.507076E0,-5.2417006E0,6.79624E-2,-4.8331156E-1,2.2282772E-1,-4.05354E-2,-4.4516498E-1,-1.3053328E-1,-3.9979446E-1,-7.2975045E-1],"categories":[],"categories_nodes":[],"categories_segments":[],"categories_sizes":[],"default_left":[0,0,0,0,0,0,0,0,0,0,0,0,0,0,0,0,0,0,0,0,0,0,0],"id":6,"left_children":[1,3,5,7,9,11,13,-1,-1,-1,-1,15,17,19,21,-1,-1,-1,-1,-1,-1,-1,-1],"loss_changes":[1.6301E4,2.4227734E2,1.4023088E4,1.7304785E2,1.3133856E2,3.2550864E3,1.0132661E3,0E0,0E0,0E0,0E0,2.1625127E3,3.1646553E3,1.5201709E3,4.1317188E2,0E0,0E0,0E0,0E0,0E0,0E0,0E0,0E0],"parents":[2147483647,0,0,1,1,2,2,3,3,4,4,5,5,6,6,11,11,12,12,13,13,14,14],"right_children":[2,4,6,8,10,12,14,-1,-1,-1,-1,16,18,20,22,-1,-1,-1,-1,-1,-1,-1,-1],"split_conditions":[4E0,3E0,2.1E1,5E0,2E0,6E0,2.3E1,-6.2222844E-1,-4.8755392E-1,-1.5571807E-1,-4.4730926E-1,5E0,1.9E1,4E0,7E0,6.79624E-2,-4.8331156E-1,2.2282772E-1,-4.05354E-2,-4.4516498E-1,-1.3053328E-1,-3.9979446E-1,-7.2975045E-1],"split_indices":[1,1,1,0,0,1,1,0,0,0,0,0,1,0,0,0,0,0,0,0,0,0,0],"split_type":[0,0,0,0,0,0,0,0,0,0,0,0,0,0,0,0,0,0,0,0,0,0,0],"sum_hessian":[4.873E3,5.2E2,4.353E3,4.48E2,7.2E1,3.529E3,8.24E2,2.27E2,2.21E2,2.5E1,4.7E1,2.88E2,3.241E3,6.52E2,1.72E2,1.63E2,1.25E2,2.692E3,5.49E2,2.48E2,4.04E2,1.09E2,6.3E1],"tree_param":{"num_deleted":"0","num_feature":"2","num_nodes":"23","size_leaf_vector":"1"}},{"base_weights":[-4.421815E-3,-4.7645564E0,5.651773E-1,-5.015713E0,-3.154502E0,1.3461838E0,-2.7772686E0,-5.6027846E0,-4.390182E0,-1.4074521E-1,-4.0351018E-1,-5.0606555E-1,1.7707263E0,-2.25725E0,-4.7240596E0,-5.1078665E-1,-5.882928E-1,-3.88243E-1,-4.5669493E-1,1.8407394E-1,-3.0904236E-1,2.451605E-1,7.258262E-3,-4.0082732E-1,-1.17512204E-1,-3.6017844E-1,-6.5791565E-1],"categories":[],"categories_nodes":[],"categories_segments":[],"categories_sizes":[],"default_left":[0,0,0,0,0,0,0,0,0,0,0,0,0,0,0,0,0,0,0,0,0,0,0,0,0,0,0],"id":7,"left_children":[1,3,5,7,9,11,13,15,17,-1,-1,19,21,23,25,-1,-1,-1,-1,-1,-1,-1,-1,-1,-1,-1,-1],"loss_changes":[1.3217903E4,1.9485742E2,1.1369733E4,1.4028906E2,1.0662781E2,2.7767422E3,8.2453955E2,1.5620117E0,2.194336E0,0E0,0E0,4.0025132E3,3.3205156E3,1.2326145E3,3.3647705E2,0E0,0E0,0E0,0E0,0E0,0E0,0E0,0E0,0E0,0E0,0E0,0E0],"parents":[2147483647,0,0,1,1,2,2,3,3,4,4,5,5,6,6,7,7,8,8,11,11,12,12,13,13,14,14],"right_children":[2,4,6,8,10,12,14,16,18,-1,-1,20,22,24,26,-1,-1,-1,-1,-1,-1,-1,-1,-1,-1,-1,-1],"split_conditions":[4E0,3E0,2.1E1,5E0,2E0,9E0,2.3E1,2E0,1E0,-1.4074521E-1,-4.0351018E-1,5E0,1.8E1,4E0,7E0,-5.1078665E-1,-5.882928E-1,-3.88243E-1,-4.5669493E-1,1.8407394E-1,-3.0904236E-1,2.451605E-1,7.258262E-3,-4.0082732E-1,-1.17512204E-1,-3.6017844E-1,-6.5791565E-1],"split_indices":[1,1,1,0,0,1,1,0,1,0,0,0,1,0,0,0,0,0,0,0,0,0,0,0,0,0,0],"split_type":[0,0,0,0,0,0,0,0,0,0,0,0,0,0,0,0,0,0,0,0,0,0,0,0,0,0,0],"sum_hessian":[4.873E3,5.2E2,4.353E3,4.48E2,7.2E1,3.529E3,8.24E2,2.27E2,2.21E2,2.5E1,4.7E1,6.58E2,2.871E3,6.52E2,1.72E2,8.9E1,1.38E2,6.3E1,1.58E2,3.45E2,3.13E2,2.049E3,8.22E2,2.48E2,4.04E2,1.09E2,6.3E1],"tree_param":{"num_deleted":"0","num_feature":"2","num_nodes":"27","size_leaf_vector":"1"}},{"base_weights":[-4.779594E-3,-4.292877E0,5.083356E-1,-4.5184717E0,-2.8465075E0,1.5033975E0,-1.6508985E0,-5.0473266E0,-3.9549704E0,-1.2721203E-1,-3.6399984E-1,-4.5564908E-1,2.0585022E0,-7.572528E-1,-3.2312686E0,-4.602755E-1,-5.298867E-1,-3.5002536E-1,-4.1131267E-1,1.657197E-1,-2.782366E-1,2.8792235E-1,1.3851584E-1,-4.0183076E-1,-2.7582327E-2,-2.66586E-1,-5.102499E-1],"categories":[],"categories_nodes":[],"categories_segments":[],"categories_sizes":[],"default_left":[0,0,0,0,0,0,0,0,0,0,0,0,0,0,0,0,0,0,0,0,0,0,0,0,0,0,0],"id":8,"left_children":[1,3,5,7,9,11,13,15,17,-1,-1,19,21,23,25,-1,-1,-1,-1,-1,-1,-1,-1,-1,-1,-1,-1],"loss_changes":[1.0726386E4,1.571377E2,9.357361E3,1.1384375E2,8.656561E1,3.242705E3,1.9380405E3,1.1074219E0,1.5683594E0,0E0,0E0,3.244251E3,1.2797656E3,1.3788938E3,5.111704E2,0E0,0E0,0E0,0E0,0E0,0E0,0E0,0E0,0E0,0E0,0E0,0E0],"parents":[2147483647,0,0,1,1,2,2,3,3,4,4,5,5,6,6,7,7,8,8,11,11,12,12,13,13,14,14],"right_children":[2,4,6,8,10,12,14,16,18,-1,-1,20,22,24,26,-1,-1,-1,-1,-1,-1,-1,-1,-1,-1,-1,-1],"split_conditions":[4E0,3E0,1.9E1,5E0,2E0,9E0,2.2E1,2E0,1E0,-1.2721203E-1,-3.6399984E-1,5E0,5E0,2E0,7E0,-4.602755E-1,-5.298867E-1,-3.5002536E-1,-4.1131267E-1,1.657197E-1,-2.782366E-1,2.8792235E-1,1.3851584E-1,-4.0183076E-1,-2.7582327E-2,-2.66586E-1,-5.102499E-1],"split_indices":[1,1,1,0,0,1,1,0,1,0,0,0,0,0,0,0,0,0,0,0,0,0,0,0,0,0,0],"split_type":[0,0,0,0,0,0,0,0,0,0,0,0,0,0,0,0,0,0,0,0,0,0,0,0,0,0,0],"sum_hessian":[4.873E3,5.2E2,4.353E3,4.48E2,7.2E1,2.98E3,1.373E3,2.27E2,2.21E2,2.5E1,4.7E1,6.58E2,2.322E3,8.78E2,4.95E2,8.9E1,1.38E2,6.3E1,1.58E2,3.45E2,3.13E2,1.045E3,1.277E3,1.12E2,7.66E2,3.82E2,1.13E2],"tree_param":{"num_deleted":"0","num_feature":"2","num_nodes":"27","size_leaf_vector":"1"}},{"base_weights":[-4.9446803E-3,-3.0246694E0,5.9588224E-1,-4.0705256E0,-1.7154894E0,1.6582118E0,-1.4866866E0,-4.546937E0,-3.5629025E0,7.126526E-2,-3.6575768E0,2.5925426E0,8.744353E-1,-6.820162E-1,-2.9097078E0,-4.1475937E-1,-4.7727928E-1,-3.1556973E-1,-3.704401E-1,-2.2846429E-2,9.816921E-2,-3.138803E-1,-4.1950113E-1,2.824443E-1,7.0975296E-2,-2.71987E-1,1.20564856E-1,-3.6200333E-1,-2.4827702E-2,-4.348773E-1,-2.2304098E-1],"categories":[],"categories_nodes":[],"categories_segments":[],"categories_sizes":[],"default_left":[0,0,0,0,0,0,0,0,0,0,0,0,0,0,0,0,0,0,0,0,0,0,0,0,0,0,0,0,0,0,0],"id":9,"left_children":[1,3,5,7,9,11,13,15,17,19,21,23,25,27,29,-1,-1,-1,-1,-1,-1,-1,-1,-1,-1,-1,-1,-1,-1,-1,-1],"loss_changes":[8.844856E3,1.1007114E3,8.99798E3,9.2384766E1,1.2529429E3,1.9698345E3,1.5713323E3,7.680664E-1,1.1013184E0,5.1798943E1,3.5066406E1,5.3416406E2,1.7485254E3,1.11924E3,4.75167E2,0E0,0E0,0E0,0E0,0E0,0E0,0E0,0E0,0E0,0E0,0E0,0E0,0E0,0E0,0E0,0E0],"parents":[2147483647,0,0,1,1,2,2,3,3,4,4,5,5,6,6,7,7,8,8,9,9,10,10,11,11,12,12,13,13,14,14],"right_children":[2,4,6,8,10,12,14,16,18,20,22,24,26,28,30,-1,-1,-1,-1,-1,-1,-1,-1,-1,-1,-1,-1,-1,-1,-1,-1],"split_conditions":[6E0,3E0,1.9E1,5E0,5E0,5E0,2.2E1,2E0,1E0,4E0,7E0,1.8E1,8E0,2E0,4E0,-4.1475937E-1,-4.7727928E-1,-3.1556973E-1,-3.704401E-1,-2.2846429E-2,9.816921E-2,-3.138803E-1,-4.1950113E-1,2.824443E-1,7.0975296E-2,-2.71987E-1,1.20564856E-1,-3.6200333E-1,-2.4827702E-2,-4.348773E-1,-2.2304098E-1],"split_indices":[1,1,1,0,0,0,1,0,1,0,0,1,1,0,0,0,0,0,0,0,0,0,0,0,0,0,0,0,0,0,0],"split_type":[0,0,0,0,0,0,0,0,0,0,0,0,0,0,0,0,0,0,0,0,0,0,0,0,0,0,0,0,0,0,0],"sum_hessian":[4.873E3,8.08E2,4.065E3,4.48E2,3.6E2,2.692E3,1.373E3,2.27E2,2.21E2,1.88E2,1.72E2,1.227E3,1.465E3,8.78E2,4.95E2,8.9E1,1.38E2,6.3E1,1.58E2,1.42E2,4.6E1,9.1E1,8.1E1,1.092E3,1.35E2,1.23E2,1.342E3,1.12E2,7.66E2,1.57E2,3.38E2],"tree_param":{"num_deleted":"0","num_feature":"2","num_nodes":"31","size_leaf_vector":"1"}},{"base_weights":[-5.0819693E-3,-2.7249668E0,5.360867E-1,-3.6669877E0,-1.5457635E0,1.4924656E0,-1.3387783E0,-4.0961556E0,-3.2097023E0,6.4537026E-2,-3.2960584E0,2.3335764E0,7.868881E-1,-6.142545E-1,-2.6200638E0,-3.7374428E-1,-4.2989475E-1,-2.717522E-1,-3.3061767E-1,-1.1278339E-1,2.5317792E-2,-2.828335E-1,-3.7806258E-1,2.542257E-1,6.3929945E-2,-2.4500763E-1,1.08517304E-1,-3.2612333E-1,-2.2348147E-2,-2.0906751E-1,-4.3756405E-1],"categories":[],"categories_nodes":[],"categories_segments":[],"categories_sizes":[],"default_left":[0,0,0,0,0,0,0,0,0,0,0,0,0,0,0,0,0,0,0,0,0,0,0,0,0,0,0,0,0,0,0],"id":10,"left_children":[1,3,5,7,9,11,13,15,17,19,21,23,25,27,29,-1,-1,-1,-1,-1,-1,-1,-1,-1,-1,-1,-1,-1,-1,-1,-1],"loss_changes":[7.175581E3,8.929966E2,7.292666E3,7.496973E1,1.0176915E3,1.5963755E3,1.2739045E3,5.185547E-1,1.5566406E0,4.2797295E1,2.8516357E1,4.325498E2,1.418137E3,9.084806E2,4.5182568E2,0E0,0E0,0E0,0E0,0E0,0E0,0E0,0E0,0E0,0E0,0E0,0E0,0E0,0E0,0E0,0E0],"parents":[2147483647,0,0,1,1,2,2,3,3,4,4,5,5,6,6,7,7,8,8,9,9,10,10,11,11,12,12,13,13,14,14],"right_children":[2,4,6,8,10,12,14,16,18,20,22,24,26,28,30,-1,-1,-1,-1,-1,-1,-1,-1,-1,-1,-1,-1,-1,-1,-1,-1],"split_conditions":[6E0,3E0,1.9E1,5E0,5E0,5E0,2.2E1,2E0,6E0,4E0,7E0,1.8E1,8E0,2E0,7E0,-3.7374428E-1,-4.2989475E-1,-2.717522E-1,-3.3061767E-1,-1.1278339E-1,2.5317792E-2,-2.828335E-1,-3.7806258E-1,2.542257E-1,6.3929945E-2,-2.4500763E-1,1.08517304E-1,-3.2612333E-1,-2.2348147E-2,-2.0906751E-1,-4.3756405E-1],"split_indices":[1,1,1,0,0,0,1,0,0,1,0,1,1,0,0,0,0,0,0,0,0,0,0,0,0,0,0,0,0,0,0],"split_type":[0,0,0,0,0,0,0,0,0,0,0,0,0,0,0,0,0,0,0,0,0,0,0,0,0,0,0,0,0,0,0],"sum_hessian":[4.873E3,8.08E2,4.065E3,4.48E2,3.6E2,2.692E3,1.373E3,2.27E2,2.21E2,1.88E2,1.72E2,1.227E3,1.465E3,8.78E2,4.95E2,8.9E1,1.38E2,4.1E1,1.8E2,2.5E1,1.63E2,9.1E1,8.1E1,1.092E3,1.35E2,1.23E2,1.342E3,1.12E2,7.66E2,3.82E2,1.13E2],"tree_param":{"num_deleted":"0","num_feature":"2","num_nodes":"31","size_leaf_vector":"1"}},{"base_weights":[-5.1823286E-3,-2.455133E0,4.822784E-1,-3.30342E0,-1.3932604E0,1.2185557E0,-1.5090599E0,-3.6900647E0,-2.8914456E0,5.762025E-2,-2.970273E0,1.503839E0,-5.5922136E-2,-2.6999826E0,-8.7754434E-1,-3.367851E-1,-3.872145E-1,-2.537082E-1,-3.0158973E-1,-2.0677527E-2,8.6083174E-2,-2.548576E-1,-3.407174E-1,1.7360188E-1,4.281386E-2,-1.2403839E-1,9.857802E-2,-1.973034E-1,-3.7089038E-1,6.2360982E-3,-3.2506502E-1],"categories":[],"categories_nodes":[],"categories_segments":[],"categories_sizes":[],"default_left":[0,0,0,0,0,0,0,0,0,0,0,0,0,0,0,0,0,0,0,0,0,0,0,0,0,0,0,0,0,0,0],"id":11,"left_children":[1,3,5,7,9,11,13,15,17,19,21,23,25,27,29,-1,-1,-1,-1,-1,-1,-1,-1,-1,-1,-1,-1,-1,-1,-1,-1],"loss_changes":[5.8219814E3,7.2412305E2,5.9633154E3,6.0850586E1,8.261597E2,1.0795747E3,8.234209E2,3.359375E-1,2.138916E0,4.0315083E1,2.3190063E1,6.0516406E2,6.7244073E2,2.7138745E2,1.6039285E3,0E0,0E0,0E0,0E0,0E0,0E0,0E0,0E0,0E0,0E0,0E0,0E0,0E0,0E0,0E0,0E0],"parents":[2147483647,0,0,1,1,2,2,3,3,4,4,5,5,6,6,7,7,8,8,9,9,10,10,11,11,12,12,13,13,14,14],"right_children":[2,4,6,8,10,12,14,16,18,20,22,24,26,28,30,-1,-1,-1,-1,-1,-1,-1,-1,-1,-1,-1,-1,-1,-1,-1,-1],"split_conditions":[6E0,3E0,2E1,5E0,5E0,7E0,4E0,2E0,1E0,4E0,7E0,1.8E1,1.4E1,2.2E1,7E0,-3.367851E-1,-3.872145E-1,-2.537082E-1,-3.0158973E-1,-2.0677527E-2,8.6083174E-2,-2.548576E-1,-3.407174E-1,1.7360188E-1,4.281386E-2,-1.2403839E-1,9.857802E-2,-1.973034E-1,-3.7089038E-1,6.2360982E-3,-3.2506502E-1],"split_indices":[1,1,1,0,0,0,0,0,1,0,0,1,1,1,0,0,0,0,0,0,0,0,0,0,0,0,0,0,0,0,0],"split_type":[0,0,0,0,0,0,0,0,0,0,0,0,0,0,0,0,0,0,0,0,0,0,0,0,0,0,0,0,0,0,0],"sum_hessian":[4.873E3,8.08E2,4.065E3,4.48E2,3.6E2,2.968E3,1.097E3,2.27E2,2.21E2,1.88E2,1.72E2,2.425E3,5.43E2,3.79E2,7.18E2,8.9E1,1.38E2,6.3E1,1.58E2,1.42E2,4.6E1,9.1E1,8.1E1,1.994E3,4.31E2,2.54E2,2.89E2,2.22E2,1.57E2,5.15E2,2.03E2],"tree_param":{"num_deleted":"0","num_feature":"2","num_nodes":"31","size_leaf_vector":"1"}},{"base_weights":[-5.1778704E-3,-2.2118564E0,4.338797E-1,-2.975927E0,-1.2554029E0,9.858754E-1,-1.7358222E0,-3.3242335E0,-2.6048021E0,5.220416E-2,-2.6766882E0,1.2523015E0,-2.2130232E-1,-1.343933E0,-3.2050006E0,-3.0348077E-1,-3.487716E-1,-2.1794918E-1,-2.689102E-1,-9.9950604E-2,2.1862037E-2,-2.2964881E-1,-3.0706117E-1,1.5625046E-1,3.15583E-2,-3.6375025E-1,4.1887634E-3,-2.6073968E-1,-5.6381833E-2,-2.4462795E-1,-4.458974E-1],"categories":[],"categories_nodes":[],"categories_segments":[],"categories_sizes":[],"default_left":[0,0,0,0,0,0,0,0,0,0,0,0,0,0,0,0,0,0,0,0,0,0,0,0,0,0,0,0,0,0,0],"id":12,"left_children":[1,3,5,7,9,11,13,15,17,19,21,23,25,27,29,-1,-1,-1,-1,-1,-1,-1,-1,-1,-1,-1,-1,-1,-1,-1,-1],"loss_changes":[4.7231777E3,5.8747974E2,4.8714224E3,4.938086E1,6.71052E2,1.0429802E3,4.7069067E2,2.0361328E-1,2.0986328E0,3.32976E1,1.885852E1,7.7126904E2,5.279297E2,6.421571E2,1.5368713E2,0E0,0E0,0E0,0E0,0E0,0E0,0E0,0E0,0E0,0E0,0E0,0E0,0E0,0E0,0E0,0E0],"parents":[2147483647,0,0,1,1,2,2,3,3,4,4,5,5,6,6,7,7,8,8,9,9,10,10,11,11,12,12,13,13,14,14],"right_children":[2,4,6,8,10,12,14,16,18,20,22,24,26,28,30,-1,-1,-1,-1,-1,-1,-1,-1,-1,-1,-1,-1,-1,-1,-1,-1],"split_conditions":[6E0,3E0,2.1E1,5E0,5E0,7E0,2.3E1,2E0,6E0,4E0,7E0,1.8E1,8E0,4E0,7E0,-3.0348077E-1,-3.487716E-1,-2.1794918E-1,-2.689102E-1,-9.9950604E-2,2.1862037E-2,-2.2964881E-1,-3.0706117E-1,1.5625046E-1,3.15583E-2,-3.6375025E-1,4.1887634E-3,-2.6073968E-1,-5.6381833E-2,-2.4462795E-1,-4.458974E-1],"split_indices":[1,1,1,0,0,0,1,0,0,1,0,1,1,0,0,0,0,0,0,0,0,0,0,0,0,0,0,0,0,0,0],"split_type":[0,0,0,0,0,0,0,0,0,0,0,0,0,0,0,0,0,0,0,0,0,0,0,0,0,0,0,0,0,0,0],"sum_hessian":[4.873E3,8.08E2,4.065E3,4.48E2,3.6E2,3.241E3,8.24E2,2.27E2,2.21E2,1.88E2,1.72E2,2.655E3,5.86E2,6.52E2,1.72E2,8.9E1,1.38E2,4.1E1,1.8E2,2.5E1,1.63E2,9.1E1,8.1E1,1.994E3,6.61E2,4.1E1,5.45E2,2.48E2,4.04E2,1.09E2,6.3E1],"tree_param":{"num_deleted":"0","num_feature":"2","num_nodes":"31","size_leaf_vector":"1"}},{"base_weights":[-5.261647E-3,-1.9928386E0,3.90202E-1,-2.6808715E0,-1.1315657E0,1.1013875E0,-1.003985E0,-2.9946709E0,-2.3465147E0,4.6570618E-2,-2.4121218E0,1.7989821E0,5.162937E-1,-2.1100593E0,-4.172272E-1,-2.734699E-1,-3.141454E-1,-2.0377581E-1,-2.4560364E-1,-1.8665567E-2,7.551831E-2,-2.0693357E-1,-2.767295E-1,1.2572762E-1,2.3111773E-1,-2.2638877E-1,7.726051E-2,-3.0835724E-1,-1.5286529E-1,3.347907E-2,-2.1338184E-1],"categories":[],"categories_nodes":[],"categories_segments":[],"categories_sizes":[],"default_left":[0,0,0,0,0,0,0,0,0,0,0,0,0,0,0,0,0,0,0,0,0,0,0,0,0,0,0,0,0,0,0],"id":13,"left_children":[1,3,5,7,9,11,13,15,17,19,21,23,25,27,29,-1,-1,-1,-1,-1,-1,-1,-1,-1,-1,-1,-1,-1,-1,-1,-1],"loss_changes":[3.8318118E3,4.763667E2,4.0326492E3,4.0082764E1,5.4474207E2,1.098241E3,8.908425E2,1.09375E-1,2.5023193E0,3.1376432E1,1.5335999E1,3.378147E2,1.046409E3,2.6470557E2,1.16124E3,0E0,0E0,0E0,0E0,0E0,0E0,0E0,0E0,0E0,0E0,0E0,0E0,0E0,0E0,0E0,0E0],"parents":[2147483647,0,0,1,1,2,2,3,3,4,4,5,5,6,6,7,7,8,8,9,9,10,10,11,11,12,12,13,13,14,14],"right_children":[2,4,6,8,10,12,14,16,18,20,22,24,26,28,30,-1,-1,-1,-1,-1,-1,-1,-1,-1,-1,-1,-1,-1,-1,-1,-1],"split_conditions":[6E0,3E0,1.9E1,5E0,5E0,5E0,4E0,2E0,1E0,4E0,7E0,1.3E1,8E0,2E0,7E0,-2.734699E-1,-3.141454E-1,-2.0377581E-1,-2.4560364E-1,-1.8665567E-2,7.551831E-2,-2.0693357E-1,-2.767295E-1,1.2572762E-1,2.3111773E-1,-2.2638877E-1,7.726051E-2,-3.0835724E-1,-1.5286529E-1,3.347907E-2,-2.1338184E-1],"split_indices":[1,1,1,0,0,0,0,0,1,0,0,1,1,0,0,0,0,0,0,0,0,0,0,0,0,0,0,0,0,0,0],"split_type":[0,0,0,0,0,0,0,0,0,0,0,0,0,0,0,0,0,0,0,0,0,0,0,0,0,0,0,0,0,0,0],"sum_hessian":[4.873E3,8.08E2,4.065E3,4.48E2,3.6E2,2.692E3,1.373E3,2.27E2,2.21E2,1.88E2,1.72E2,1.227E3,1.465E3,4.75E2,8.98E2,8.9E1,1.38E2,6.3E1,1.58E2,1.42E2,4.6E1,9.1E1,8.1E1,5.98E2,6.29E2,1.23E2,1.342E3,1.76E2,2.99E2,6.25E2,2.73E2],"tree_param":{"num_deleted":"0","num_feature":"2","num_nodes":"31","size_leaf_vector":"1"}},{"base_weights":[-5.124626E-3,-1.7953643E0,3.5107532E-1,-2.415094E0,-1.0195916E0,8.138485E-1,-1.4679086E0,-2.697781E0,-2.1138875E0,4.221407E-2,-2.173705E0,1.0375576E0,-1.9975486E-1,-1.1152955E0,-2.7903855E0,-2.4642678E-1,-2.829568E-1,-1.7458978E-1,-2.1875985E-1,-8.8545196E-2,1.8902568E-2,-1.8646513E-1,-2.4939401E-1,1.3440551E-1,4.0681206E-2,-2.0226419E-1,1.877856E-2,-2.1411245E-1,-4.818468E-2,-2.1717905E-1,-3.8099962E-1],"categories":[],"categories_nodes":[],"categories_segments":[],"categories_sizes":[],"default_left":[0,0,0,0,0,0,0,0,0,0,0,0,0,0,0,0,0,0,0,0,0,0,0,0,0,0,0,0,0,0,0],"id":14,"left_children":[1,3,5,7,9,11,13,15,17,19,21,23,25,27,29,-1,-1,-1,-1,-1,-1,-1,-1,-1,-1,-1,-1,-1,-1,-1,-1],"loss_changes":[3.1086982E3,3.8648022E2,3.42386E3,3.252832E1,4.4247723E2,7.3533813E2,3.8160413E2,4.35791E-2,2.2023926E0,2.5907688E1,1.2471436E1,5.129165E2,4.1506155E2,4.232942E2,1.0084119E2,0E0,0E0,0E0,0E0,0E0,0E0,0E0,0E0,0E0,0E0,0E0,0E0,0E0,0E0,0E0,0E0],"parents":[2147483647,0,0,1,1,2,2,3,3,4,4,5,5,6,6,7,7,8,8,9,9,10,10,11,11,12,12,13,13,14,14],"right_children":[2,4,6,8,10,12,14,16,18,20,22,24,26,28,30,-1,-1,-1,-1,-1,-1,-1,-1,-1,-1,-1,-1,-1,-1,-1,-1],"split_conditions":[6E0,3E0,2.1E1,5E0,5E0,7E0,2.3E1,2E0,6E0,4E0,7E0,1.7E1,1E1,4E0,7E0,-2.4642678E-1,-2.829568E-1,-1.7458978E-1,-2.1875985E-1,-8.8545196E-2,1.8902568E-2,-1.8646513E-1,-2.4939401E-1,1.3440551E-1,4.0681206E-2,-2.0226419E-1,1.877856E-2,-2.1411245E-1,-4.818468E-2,-2.1717905E-1,-3.8099962E-1],"split_indices":[1,1,1,0,0,0,1,0,0,1,0,1,1,0,0,0,0,0,0,0,0,0,0,0,0,0,0,0,0,0,0],"split_type":[0,0,0,0,0,0,0,0,0,0,0,0,0,0,0,0,0,0,0,0,0,0,0,0,0,0,0,0,0,0,0],"sum_hessian":[4.873E3,8.08E2,4.065E3,4.48E2,3.6E2,3.241E3,8.24E2,2.27E2,2.21E2,1.88E2,1.72E2,2.655E3,5.86E2,6.52E2,1.72E2,8.9E1,1.38E2,4.1E1,1.8E2,2.5E1,1.63E2,9.1E1,8.1E1,1.786E3,8.69E2,1.02E2,4.84E2,2.48E2,4.04E2,1.09E2,6.3E1],"tree_param":{"num_deleted":"0","num_feature":"2","num_nodes":"31","size_leaf_vector":"1"}},{"base_weights":[-5.083312E-3,-1.6175933E0,3.1575426E-1,-2.1756396E0,-9.190327E-1,7.3246133E-1,-1.322161E0,-2.430325E-1,-1.9042705E0,3.7624035E-2,-1.9588541E0,9.3386805E-1,-1.8009162E-1,-1.0041679E0,-2.5148044E0,-1.6349374E-1,-2.0007049E-1,-1.6810685E-2,6.627707E-2,-1.6802126E-1,-2.2475877E-1,1.1644001E-1,2.37727E-2,-1.8223415E-1,1.6904617E-2,-1.9278722E-1,-4.3378145E-2,-1.9565855E-1,-3.4349498E-1],"categories":[],"categories_nodes":[],"categories_segments":[],"categories_sizes":[],"default_left":[0,0,0,0,0,0,0,0,0,0,0,0,0,0,0,0,0,0,0,0,0,0,0,0,0,0,0,0,0],"id":15,"left_children":[1,3,5,7,9,11,13,-1,15,17,19,21,23,25,27,-1,-1,-1,-1,-1,-1,-1,-1,-1,-1,-1,-1,-1,-1],"loss_changes":[2.5220933E3,3.1337207E2,2.776139E3,2.6404053E1,3.5917917E2,5.9602905E2,3.103579E2,0E0,2.494995E0,2.441908E1,1.0141968E1,4.2596558E2,3.368771E2,3.4320874E2,8.2139404E1,0E0,0E0,0E0,0E0,0E0,0E0,0E0,0E0,0E0,0E0,0E0,0E0,0E0,0E0],"parents":[2147483647,0,0,1,1,2,2,3,3,4,4,5,5,6,6,8,8,9,9,10,10,11,11,12,12,13,13,14,14],"right_children":[2,4,6,8,10,12,14,-1,16,18,20,22,24,26,28,-1,-1,-1,-1,-1,-1,-1,-1,-1,-1,-1,-1,-1,-1],"split_conditions":[6E0,3E0,2.1E1,5E0,5E0,7E0,2.3E1,-2.430325E-1,1E0,4E0,7E0,1.8E1,1E1,4E0,7E0,-1.6349374E-1,-2.0007049E-1,-1.6810685E-2,6.627707E-2,-1.6802126E-1,-2.2475877E-1,1.1644001E-1,2.37727E-2,-1.8223415E-1,1.6904617E-2,-1.9278722E-1,-4.3378145E-2,-1.9565855E-1,-3.4349498E-1],"split_indices":[1,1,1,0,0,0,1,0,1,0,0,1,1,0,0,0,0,0,0,0,0,0,0,0,0,0,0,0,0],"split_type":[0,0,0,0,0,0,0,0,0,0,0,0,0,0,0,0,0,0,0,0,0,0,0,0,0,0,0,0,0],"sum_hessian":[4.873E3,8.08E2,4.065E3,4.48E2,3.6E2,3.241E3,8.24E2,2.27E2,2.21E2,1.88E2,1.72E2,2.655E3,5.86E2,6.52E2,1.72E2,6.3E1,1.58E2,1.42E2,4.6E1,9.1E1,8.1E1,1.994E3,6.61E2,1.02E2,4.84E2,2.48E2,4.04E2,1.09E2,6.3E1],"tree_param":{"num_deleted":"0","num_feature":"2","num_nodes":"29","size_leaf_vector":"1"}},{"base_weights":[-4.93402E-3,-1.4570082E0,2.839821E-1,-1.9594266E0,-8.280806E-1,7.3952204E-1,-9.4805986E-1,-2.1883583E0,-1.7154813E0,3.412315E-2,-1.7652391E0,1.1897471E0,3.5511956E-1,-6.407961E-1,-2.2914567E0,-1.9802472E-1,-2.307363E-1,-1.3967049E-1,-1.7799738E-1,-7.841489E-2,1.6364114E-2,-1.5140179E-1,-2.02557E-1,1.5443735E-1,-2.2405794E-2,-2.0780735E-1,5.5874176E-2,-1.7815585E-1,2.0054208E-2,-1.9096495E-1,-3.096822E-1],"categories":[],"categories_nodes":[],"categories_segments":[],"categories_sizes":[],"default_left":[0,0,0,0,0,0,0,0,0,0,0,0,0,0,0,0,0,0,0,0,0,0,0,0,0,0,0,0,0,0,0],"id":16,"left_children":[1,3,5,7,9,11,13,15,17,19,21,23,25,27,29,-1,-1,-1,-1,-1,-1,-1,-1,-1,-1,-1,-1,-1,-1,-1,-1],"loss_changes":[2.0451915E3,2.5400928E2,2.2827205E3,2.1321167E1,2.9175604E2,5.134153E2,4.5176093E2,1.0775146E0,2.078003E0,2.0158718E1,8.247559E0,6.8572217E2,7.953707E2,8.5934875E2,5.6815063E1,0E0,0E0,0E0,0E0,0E0,0E0,0E0,0E0,0E0,0E0,0E0,0E0,0E0,0E0,0E0,0E0],"parents":[2147483647,0,0,1,1,2,2,3,3,4,4,5,5,6,6,7,7,8,8,9,9,10,10,11,11,12,12,13,13,14,14],"right_children":[2,4,6,8,10,12,14,16,18,20,22,24,26,28,30,-1,-1,-1,-1,-1,-1,-1,-1,-1,-1,-1,-1,-1,-1,-1,-1],"split_conditions":[6E0,3E0,2E1,5E0,5E0,5E0,7E0,2E0,6E0,4E0,7E0,1.8E1,8E0,4E0,2.3E1,-1.9802472E-1,-2.307363E-1,-1.3967049E-1,-1.7799738E-1,-7.841489E-2,1.6364114E-2,-1.5140179E-1,-2.02557E-1,1.5443735E-1,-2.2405794E-2,-2.0780735E-1,5.5874176E-2,-1.7815585E-1,2.0054208E-2,-1.9096495E-1,-3.096822E-1],"split_indices":[1,1,1,0,0,0,0,0,0,1,0,1,1,0,1,0,0,0,0,0,0,0,0,0,0,0,0,0,0,0,0],"split_type":[0,0,0,0,0,0,0,0,0,0,0,0,0,0,0,0,0,0,0,0,0,0,0,0,0,0,0,0,0,0,0],"sum_hessian":[4.873E3,8.08E2,4.065E3,4.48E2,3.6E2,2.968E3,1.097E3,2.27E2,2.21E2,1.88E2,1.72E2,1.366E3,1.602E3,8.94E2,2.03E2,8.9E1,1.38E2,4.1E1,1.8E2,2.5E1,1.63E2,9.1E1,8.1E1,1.092E3,2.74E2,1.23E2,1.479E3,3.79E2,5.15E2,1.4E2,6.3E1],"tree_param":{"num_deleted":"0","num_feature":"2","num_nodes":"31","size_leaf_vector":"1"}},{"base_weights":[-4.818375E-3,-1.3127443E0,2.5541696E-1,-1.7651464E0,-7.464249E-1,5.993118E-1,-1.0962954E0,-1.9714031E0,-1.5453639E0,3.0382449E-2,-1.5907611E0,7.7168447E-1,-1.8164387E-1,-8.1751305E-1,-2.1422408E0,-1.7844227E-1,-2.0782869E-1,-1.3101605E-1,-1.6303179E-1,-1.5109389E-2,5.8188744E-2,-1.3642615E-1,-1.8254831E-1,9.954992E-2,3.1107692E-2,-9.7071014E-2,4.2314157E-2,-1.5584187E-1,-3.5997473E-2,-1.7447369E-1,-2.791978E-1],"categories":[],"categories_nodes":[],"categories_segments":[],"categories_sizes":[],"default_left":[0,0,0,0,0,0,0,0,0,0,0,0,0,0,0,0,0,0,0,0,0,0,0,0,0,0,0,0,0,0,0],"id":17,"left_children":[1,3,5,7,9,11,13,15,17,19,21,23,25,27,29,-1,-1,-1,-1,-1,-1,-1,-1,-1,-1,-1,-1,-1,-1,-1,-1],"loss_changes":[1.6592915E3,2.0595154E2,1.890725E3,1.7307373E1,2.368234E2,4.3656323E2,2.3881146E2,8.480835E-1,2.2999268E0,1.9004004E1,6.7070007E0,2.7349927E2,2.805364E2,2.208013E2,3.9809937E1,0E0,0E0,0E0,0E0,0E0,0E0,0E0,0E0,0E0,0E0,0E0,0E0,0E0,0E0,0E0,0E0],"parents":[2147483647,0,0,1,1,2,2,3,3,4,4,5,5,6,6,7,7,8,8,9,9,10,10,11,11,12,12,13,13,14,14],"right_children":[2,4,6,8,10,12,14,16,18,20,22,24,26,28,30,-1,-1,-1,-1,-1,-1,-1,-1,-1,-1,-1,-1,-1,-1,-1,-1],"split_conditions":[6E0,3E0,2.1E1,5E0,5E0,7E0,2.3E1,2E0,1E0,4E0,7E0,1.7E1,1.4E1,4E0,7E0,-1.7844227E-1,-2.0782869E-1,-1.3101605E-1,-1.6303179E-1,-1.5109389E-2,5.8188744E-2,-1.3642615E-1,-1.8254831E-1,9.954992E-2,3.1107692E-2,-9.7071014E-2,4.2314157E-2,-1.5584187E-1,-3.5997473E-2,-1.7447369E-1,-2.791978E-1],"split_indices":[1,1,1,0,0,0,1,0,1,0,0,1,1,0,0,0,0,0,0,0,0,0,0,0,0,0,0,0,0,0,0],"split_type":[0,0,0,0,0,0,0,0,0,0,0,0,0,0,0,0,0,0,0,0,0,0,0,0,0,0,0,0,0,0,0],"sum_hessian":[4.873E3,8.08E2,4.065E3,4.48E2,3.6E2,3.241E3,8.24E2,2.27E2,2.21E2,1.88E2,1.72E2,2.655E3,5.86E2,6.52E2,1.72E2,8.9E1,1.38E2,6.3E1,1.58E2,1.42E2,4.6E1,9.1E1,8.1E1,1.786E3,8.69E2,2.54E2,3.32E2,2.48E2,4.04E2,1.09E2,6.3E1],"tree_param":{"num_deleted":"0","num_feature":"2","num_nodes":"31","size_leaf_vector":"1"}},{"base_weights":[-4.649772E-3,-1.1826519E0,2.2973496E-1,-1.5901469E0,-6.725468E-1,6.719302E-1,-6.37122E-1,-1.7759569E0,-1.3921522E0,2.75718E-2,-1.4335287E0,1.177068E0,2.4834141E-1,-2.3307157E0,-3.8636807E-1,-1.6079628E-1,-1.8719533E-1,-1.1156934E-1,-1.4486115E-1,-6.942219E-2,1.4183439E-2,-1.2293184E-1,-1.6451608E-1,6.277689E-2,1.6974697E-1,-1.9056775E-1,4.4703837E-2,-2.8207004E-1,-1.9991589E-1,-4.927776E-3,-1.5229455E-1],"categories":[],"categories_nodes":[],"categories_segments":[],"categories_sizes":[],"default_left":[0,0,0,0,0,0,0,0,0,0,0,0,0,0,0,0,0,0,0,0,0,0,0,0,0,0,0,0,0,0,0],"id":18,"left_children":[1,3,5,7,9,11,13,15,17,19,21,23,25,27,29,-1,-1,-1,-1,-1,-1,-1,-1,-1,-1,-1,-1,-1,-1,-1,-1],"loss_changes":[1.3460109E3,1.6709363E2,1.5590073E3,1.40460205E1,1.9237222E2,5.759308E2,5.826032E2,6.668701E-1,1.8489075E0,1.5686056E1,5.454193E0,3.499657E2,6.282955E2,2.3116028E1,4.589137E2,0E0,0E0,0E0,0E0,0E0,0E0,0E0,0E0,0E0,0E0,0E0,0E0,0E0,0E0,0E0,0E0],"parents":[2147483647,0,0,1,1,2,2,3,3,4,4,5,5,6,6,7,7,8,8,9,9,10,10,11,11,12,12,13,13,14,14],"right_children":[2,4,6,8,10,12,14,16,18,20,22,24,26,28,30,-1,-1,-1,-1,-1,-1,-1,-1,-1,-1,-1,-1,-1,-1,-1,-1],"split_conditions":[6E0,3E0,1.9E1,5E0,5E0,5E0,2E0,2E0,6E0,4E0,7E0,1.3E1,8E0,2.1E1,7E0,-1.6079628E-1,-1.8719533E-1,-1.1156934E-1,-1.4486115E-1,-6.942219E-2,1.4183439E-2,-1.2293184E-1,-1.6451608E-1,6.277689E-2,1.6974697E-1,-1.9056775E-1,4.4703837E-2,-2.8207004E-1,-1.9991589E-1,-4.927776E-3,-1.5229455E-1],"split_indices":[1,1,1,0,0,0,0,0,0,1,0,1,1,1,0,0,0,0,0,0,0,0,0,0,0,0,0,0,0,0,0],"split_type":[0,0,0,0,0,0,0,0,0,0,0,0,0,0,0,0,0,0,0,0,0,0,0,0,0,0,0,0,0,0,0],"sum_hessian":[4.873E3,8.08E2,4.065E3,4.48E2,3.6E2,2.692E3,1.373E3,2.27E2,2.21E2,1.88E2,1.72E2,1.227E3,1.465E3,1.76E2,1.197E3,8.9E1,1.38E2,4.1E1,1.8E2,2.5E1,1.63E2,9.1E1,8.1E1,5.98E2,6.29E2,1.23E2,1.342E3,6.8E1,1.08E2,9.24E2,2.73E2],"tree_param":{"num_deleted":"0","num_feature":"2","num_nodes":"31","size_leaf_vector":"1"}},{"base_weights":[-4.4925357E-3,-1.0655574E0,2.0662549E-1,-1.4324783E0,-6.062413E-1,4.9539986E-1,-9.284207E-1,-1.5998875E0,-1.254092E0,2.4522625E-2,-1.2918375E0,6.3870233E-1,-1.5384522E-1,-6.8326634E-1,-1.8484055E0,-1.4489534E-1,-1.6861047E-1,-1.0484771E-1,-1.3289678E-1,-1.3555805E-2,5.110548E-2,-9.555905E-2,-1.4096789E-1,-9.412183E-3,7.648699E-2,-8.807211E-2,4.0323343E-2,-1.3301665E-1,-2.838555E-2,-1.5297414E-1,-2.3672281E-1],"categories":[],"categories_nodes":[],"categories_segments":[],"categories_sizes":[],"default_left":[0,0,0,0,0,0,0,0,0,0,0,0,0,0,0,0,0,0,0,0,0,0,0,0,0,0,0,0,0,0,0],"id":19,"left_children":[1,3,5,7,9,11,13,15,17,19,21,23,25,27,29,-1,-1,-1,-1,-1,-1,-1,-1,-1,-1,-1,-1,-1,-1,-1,-1],"loss_changes":[1.0920444E3,1.3547449E2,1.3331819E3,1.1402344E1,1.5614587E2,3.0172888E2,1.8480609E2,5.239258E-1,2.0244446E0,1.4789429E1,5.507843E0,2.4564209E2,2.3804729E2,1.6834387E2,2.4980774E1,0E0,0E0,0E0,0E0,0E0,0E0,0E0,0E0,0E0,0E0,0E0,0E0,0E0,0E0,0E0,0E0],"parents":[2147483647,0,0,1,1,2,2,3,3,4,4,5,5,6,6,7,7,8,8,9,9,10,10,11,11,12,12,13,13,14,14],"right_children":[2,4,6,8,10,12,14,16,18,20,22,24,26,28,30,-1,-1,-1,-1,-1,-1,-1,-1,-1,-1,-1,-1,-1,-1,-1,-1],"split_conditions":[6E0,3E0,2.1E1,5E0,5E0,7E0,2.3E1,2E0,1E0,4E0,4E0,2E0,1.4E1,4E0,7E0,-1.4489534E-1,-1.6861047E-1,-1.0484771E-1,-1.3289678E-1,-1.3555805E-2,5.110548E-2,-9.555905E-2,-1.4096789E-1,-9.412183E-3,7.648699E-2,-8.807211E-2,4.0323343E-2,-1.3301665E-1,-2.838555E-2,-1.5297414E-1,-2.3672281E-1],"split_indices":[1,1,1,0,0,0,1,0,1,0,1,0,1,0,0,0,0,0,0,0,0,0,0,0,0,0,0,0,0,0,0],"split_type":[0,0,0,0,0,0,0,0,0,0,0,0,0,0,0,0,0,0,0,0,0,0,0,0,0,0,0,0,0,0,0],"sum_hessian":[4.873E3,8.08E2,4.065E3,4.48E2,3.6E2,3.241E3,8.24E2,2.27E2,2.21E2,1.88E2,1.72E2,2.655E3,5.86E2,6.52E2,1.72E2,8.9E1,1.38E2,6.3E1,1.58E2,1.42E2,4.6E1,4.7E1,1.25E2,3.9E2,2.265E3,2.54E2,3.32E2,2.48E2,4.04E2,1.09E2,6.3E1],"tree_param":{"num_deleted":"0","num_feature":"2","num_nodes":"31","size_leaf_vector":"1"}},{"base_weights":[-4.306138E-3,-9.59929E-1,1.8583237E-1,-1.2904581E0,-5.461685E-1,6.153004E-1,-4.4531426E-1,-1.4412737E0,-1.1297536E0,2.2268714E-2,-1.1640209E0,2.5454366E-1,1.4014251E0,-1.3405057E0,2.2117417E-2,-1.305668E-1,-1.5187071E-1,-9.452674E-2,-1.1969068E-1,-6.144361E-2,1.2307393E-2,-9.806265E-2,-1.3555853E-1,4.588226E-2,-6.806467E-2,1.9654538E-1,2.6114052E-2,-2.0162122E-1,-9.6184306E-2,5.5891704E-2,-1.2482659E-1],"categories":[],"categories_nodes":[],"categories_segments":[],"categories_sizes":[],"default_left":[0,0,0,0,0,0,0,0,0,0,0,0,0,0,0,0,0,0,0,0,0,0,0,0,0,0,0,0,0,0,0],"id":20,"left_children":[1,3,5,7,9,11,13,15,17,19,21,23,25,27,29,-1,-1,-1,-1,-1,-1,-1,-1,-1,-1,-1,-1,-1,-1,-1,-1],"loss_changes":[8.8578754E2,1.0993402E2,1.1023931E3,9.253967E0,1.2681285E2,6.8595483E2,6.892018E2,4.1116333E-1,1.618927E0,1.220624E1,4.748459E0,3.1743814E2,4.8892615E2,1.4262433E2,7.392401E2,0E0,0E0,0E0,0E0,0E0,0E0,0E0,0E0,0E0,0E0,0E0,0E0,0E0,0E0,0E0,0E0],"parents":[2147483647,0,0,1,1,2,2,3,3,4,4,5,5,6,6,7,7,8,8,9,9,10,10,11,11,12,12,13,13,14,14],"right_children":[2,4,6,8,10,12,14,16,18,20,22,24,26,28,30,-1,-1,-1,-1,-1,-1,-1,-1,-1,-1,-1,-1,-1,-1,-1,-1],"split_conditions":[6E0,3E0,1.8E1,5E0,5E0,1.5E1,4E0,2E0,1E0,4E0,7E0,7E0,1.7E1,2E0,7E0,-1.305668E-1,-1.5187071E-1,-9.452674E-2,-1.1969068E-1,-6.144361E-2,1.2307393E-2,-9.806265E-2,-1.3555853E-1,4.588226E-2,-6.806467E-2,1.9654538E-1,2.6114052E-2,-2.0162122E-1,-9.6184306E-2,5.5891704E-2,-1.2482659E-1],"split_indices":[1,1,1,0,0,1,0,0,1,1,0,0,1,0,0,0,0,0,0,0,0,0,0,0,0,0,0,0,0,0,0],"split_type":[0,0,0,0,0,0,0,0,0,0,0,0,0,0,0,0,0,0,0,0,0,0,0,0,0,0,0,0,0,0,0],"sum_hessian":[4.873E3,8.08E2,4.065E3,4.48E2,3.6E2,2.419E3,1.646E3,2.27E2,2.21E2,1.88E2,1.72E2,1.659E3,7.6E2,5.64E2,1.082E3,8.9E1,1.38E2,6.3E1,1.58E2,2.5E1,1.63E2,9.1E1,8.1E1,1.362E3,2.97E2,5.08E2,2.52E2,2.01E2,3.63E2,7.61E2,3.21E2],"tree_param":{"num_deleted":"0","num_feature":"2","num_nodes":"31","size_leaf_vector":"1"}},{"base_weights":[-4.0697595E-3,-8.6489946E-1,1.6720797E-1,-1.1625184E0,-4.9233493E-1,4.1166428E-1,-7.9363394E-1,-1.298385E0,-1.017743E0,1.978185E-2,-1.0489693E0,5.907915E-1,5.0027605E-2,-5.7234484E-1,-1.6243168E0,-1.0009871E-1,-1.3268688E-1,-7.842791E-2,-1.06629394E-1,-1.2142505E-2,4.4899043E-2,-7.4881695E-2,-1.1549878E-1,2.2907512E-2,1.7692952E-1,-2.0672858E-1,3.640687E-2,-1.0650467E-1,-2.6801128E-2,-2.535851E-1,-1.481698E-1],"categories":[],"categories_nodes":[],"categories_segments":[],"categories_sizes":[],"default_left":[0,0,0,0,0,0,0,0,0,0,0,0,0,0,0,0,0,0,0,0,0,0,0,0,0,0,0,0,0,0,0],"id":21,"left_children":[1,3,5,7,9,11,13,15,17,19,21,23,25,27,29,-1,-1,-1,-1,-1,-1,-1,-1,-1,-1,-1,-1,-1,-1,-1,-1],"loss_changes":[7.187718E2,8.913141E1,9.553645E2,7.510498E0,1.0292807E2,2.0998389E2,1.5072266E2,6.0321045E-1,1.6800842E0,1.1509281E1,4.640274E0,9.237785E2,7.155453E2,9.7629074E1,1.8732971E1,0E0,0E0,0E0,0E0,0E0,0E0,0E0,0E0,0E0,0E0,0E0,0E0,0E0,0E0,0E0,0E0],"parents":[2147483647,0,0,1,1,2,2,3,3,4,4,5,5,6,6,7,7,8,8,9,9,10,10,11,11,12,12,13,13,14,14],"right_children":[2,4,6,8,10,12,14,16,18,20,22,24,26,28,30,-1,-1,-1,-1,-1,-1,-1,-1,-1,-1,-1,-1,-1,-1,-1,-1],"split_conditions":[6E0,3E0,2.1E1,5E0,5E0,1.7E1,2.3E1,1E0,6E0,4E0,4E0,1.5E1,2E0,4E0,2E0,-1.0009871E-1,-1.3268688E-1,-7.842791E-2,-1.06629394E-1,-1.2142505E-2,4.4899043E-2,-7.4881695E-2,-1.1549878E-1,2.2907512E-2,1.7692952E-1,-2.0672858E-1,3.640687E-2,-1.0650467E-1,-2.6801128E-2,-2.535851E-1,-1.481698E-1],"split_indices":[1,1,1,0,0,1,1,1,0,0,1,1,0,0,0,0,0,0,0,0,0,0,0,0,0,0,0,0,0,0,0],"split_type":[0,0,0,0,0,0,0,0,0,0,0,0,0,0,0,0,0,0,0,0,0,0,0,0,0,0,0,0,0,0,0],"sum_hessian":[4.873E3,8.08E2,4.065E3,4.48E2,3.6E2,3.241E3,8.24E2,2.27E2,2.21E2,1.88E2,1.72E2,2.167E3,1.074E3,6.52E2,1.72E2,2.3E1,2.04E2,4.1E1,1.8E2,1.42E2,4.6E1,4.7E1,1.25E2,1.659E3,5.08E2,1.38E2,9.36E2,2.48E2,4.04E2,2.1E1,1.51E2],"tree_param":{"num_deleted":"0","num_feature":"2","num_nodes":"31","size_leaf_vector":"1"}},{"base_weights":[-3.8845022E-3,-7.791209E-1,1.5036295E-1,-1.0471972E0,-4.435382E-1,4.1762632E-1,-5.7245606E-1,-1.1695676E0,-9.168023E-1,1.7976752E-2,-9.451728E-1,7.6187366E-1,1.2379989E-1,-3.4543437E-1,-1.565652E0,-1.0453393E-1,-1.2415891E-1,-7.556267E-2,-9.75912E-2,-5.436808E-2,1.069104E-2,-7.804235E-2,-1.1184869E-1,1.00844435E-1,-2.2090329E-2,-1.7686644E-1,2.8227407E-2,-1.1279913E-1,2.3153672E-2,-1.3050644E-1,-1.759931E-1],"categories":[],"categories_nodes":[],"categories_segments":[],"categories_sizes":[],"default_left":[0,0,0,0,0,0,0,0,0,0,0,0,0,0,0,0,0,0,0,0,0,0,0,0,0,0,0,0,0,0,0],"id":22,"left_children":[1,3,5,7,9,11,13,15,17,19,21,23,25,27,29,-1,-1,-1,-1,-1,-1,-1,-1,-1,-1,-1,-1,-1,-1,-1,-1],"loss_changes":[5.829415E2,7.2314575E1,7.8572125E2,6.092224E0,8.359279E1,3.0021692E2,2.4703293E2,7.420349E-1,1.3775787E0,9.498723E0,4.0668335E0,3.3147968E2,4.812497E2,4.0436508E2,8.031006E0,0E0,0E0,0E0,0E0,0E0,0E0,0E0,0E0,0E0,0E0,0E0,0E0,0E0,0E0,0E0,0E0],"parents":[2147483647,0,0,1,1,2,2,3,3,4,4,5,5,6,6,7,7,8,8,9,9,10,10,11,11,12,12,13,13,14,14],"right_children":[2,4,6,8,10,12,14,16,18,20,22,24,26,28,30,-1,-1,-1,-1,-1,-1,-1,-1,-1,-1,-1,-1,-1,-1,-1,-1],"split_conditions":[6E0,3E0,2E1,5E0,5E0,5E0,7E0,2E0,1E0,4E0,7E0,1.8E1,8E0,4E0,2.2E1,-1.0453393E-1,-1.2415891E-1,-7.556267E-2,-9.75912E-2,-5.436808E-2,1.069104E-2,-7.804235E-2,-1.1184869E-1,1.00844435E-1,-2.2090329E-2,-1.7686644E-1,2.8227407E-2,-1.1279913E-1,2.3153672E-2,-1.3050644E-1,-1.759931E-1],"split_indices":[1,1,1,0,0,0,0,0,1,1,0,1,1,0,1,0,0,0,0,0,0,0,0,0,0,0,0,0,0,0,0],"split_type":[0,0,0,0,0,0,0,0,0,0,0,0,0,0,0,0,0,0,0,0,0,0,0,0,0,0,0,0,0,0,0],"sum_hessian":[4.873E3,8.08E2,4.065E3,4.48E2,3.6E2,2.968E3,1.097E3,2.27E2,2.21E2,1.88E2,1.72E2,1.366E3,1.602E3,8.94E2,2.03E2,8.9E1,1.38E2,6.3E1,1.58E2,2.5E1,1.63E2,9.1E1,8.1E1,1.092E3,2.74E2,1.23E2,1.479E3,3.79E2,5.15E2,9E1,1.13E2],"tree_param":{"num_deleted":"0","num_feature":"2","num_nodes":"31","size_leaf_vector":"1"}},{"base_weights":[-3.722085E-3,-7.019941E-1,1.3521196E-1,-9.433724E-1,-3.9983115E-1,3.369407E-1,-6.576848E-1,-1.0536139E0,-8.25902E-1,1.594828E-2,-8.51753E-1,4.4482994E-1,-1.517999E-1,-4.6049145E-1,-1.3982025E0,-7.860737E-2,-1.0797961E-1,-6.2241632E-2,-8.6855665E-2,-1.086098E-2,3.9458353E-2,-7.7796824E-2,-1.277418E-1,-1.31166205E-2,5.440222E-2,-7.431554E-2,3.0149579E-2,-8.466239E-2,-2.2195445E-2,-2.1861203E-1,-1.2749632E-1],"categories":[],"categories_nodes":[],"categories_segments":[],"categories_sizes":[],"default_left":[0,0,0,0,0,0,0,0,0,0,0,0,0,0,0,0,0,0,0,0,0,0,0,0,0,0,0,0,0,0,0],"id":23,"left_children":[1,3,5,7,9,11,13,15,17,19,21,23,25,27,29,-1,-1,-1,-1,-1,-1,-1,-1,-1,-1,-1,-1,-1,-1,-1,-1],"loss_changes":[4.7293997E2,5.8627686E1,6.505786E2,4.9444275E0,6.784541E1,1.710177E2,1.19826904E2,7.48291E-1,1.3862762E0,8.956488E0,4.4397125E0,1.5182019E2,1.5757465E2,5.995787E1,1.4011505E1,0E0,0E0,0E0,0E0,0E0,0E0,0E0,0E0,0E0,0E0,0E0,0E0,0E0,0E0,0E0,0E0],"parents":[2147483647,0,0,1,1,2,2,3,3,4,4,5,5,6,6,7,7,8,8,9,9,10,10,11,11,12,12,13,13,14,14],"right_children":[2,4,6,8,10,12,14,16,18,20,22,24,26,28,30,-1,-1,-1,-1,-1,-1,-1,-1,-1,-1,-1,-1,-1,-1,-1,-1],"split_conditions":[6E0,3E0,2.1E1,5E0,5E0,7E0,2.3E1,1E0,6E0,4E0,5E0,2E0,1.4E1,4E0,2E0,-7.860737E-2,-1.0797961E-1,-6.2241632E-2,-8.6855665E-2,-1.086098E-2,3.9458353E-2,-7.7796824E-2,-1.277418E-1,-1.31166205E-2,5.440222E-2,-7.431554E-2,3.0149579E-2,-8.466239E-2,-2.2195445E-2,-2.1861203E-1,-1.2749632E-1],"split_indices":[1,1,1,0,0,0,1,1,0,0,1,0,1,0,0,0,0,0,0,0,0,0,0,0,0,0,0,0,0,0,0],"split_type":[0,0,0,0,0,0,0,0,0,0,0,0,0,0,0,0,0,0,0,0,0,0,0,0,0,0,0,0,0,0,0],"sum_hessian":[4.873E3,8.08E2,4.065E3,4.48E2,3.6E2,3.241E3,8.24E2,2.27E2,2.21E2,1.88E2,1.72E2,2.655E3,5.86E2,6.52E2,1.72E2,2.3E1,2.04E2,4.1E1,1.8E2,1.42E2,4.6E1,1.49E2,2.3E1,3.9E2,2.265E3,2.54E2,3.32E2,2.48E2,4.04E2,2.1E1,1.51E2],"tree_param":{"num_deleted":"0","num_feature":"2","num_nodes":"31","size_leaf_vector":"1"}},{"base_weights":[-3.548198E-3,-5.032311E-1,1.5584837E-1,-1.2068987E-1,-8.954243E-1,5.3601235E-1,-3.1743157E-1,-9.04716E-1,4.5294973E-1,-7.284846E-1,-1.1833452E0,2.3594196E-1,1.0439688E0,-1.0189021E0,4.881798E-2,-9.49071E-2,-4.8096027E-2,1.2388869E-1,2.4912914E-2,-6.0194936E-2,-8.205466E-2,-1.5421349E-1,-3.66293E-2,3.8985737E-2,-4.5311168E-2,2.1151245E-1,6.531127E-2,-1.5025914E-1,-7.4768186E-2,4.9217343E-2,-1.0005164E-1],"categories":[],"categories_nodes":[],"categories_segments":[],"categories_sizes":[],"default_left":[0,0,0,0,0,0,0,0,0,0,0,0,0,0,0,0,0,0,0,0,0,0,0,0,0,0,0,0,0,0,0],"id":24,"left_children":[1,3,5,7,9,11,13,15,17,19,21,23,25,27,29,-1,-1,-1,-1,-1,-1,-1,-1,-1,-1,-1,-1,-1,-1,-1,-1],"loss_changes":[3.882815E2,1.767774E2,6.651692E2,2.6935938E2,2.711203E1,3.1222015E2,4.2318582E2,4.2988434E0,5.511715E1,3.827896E0,6.1582886E1,1.3698882E2,3.1722473E2,7.2996826E1,5.0433453E2,0E0,0E0,0E0,0E0,0E0,0E0,0E0,0E0,0E0,0E0,0E0,0E0,0E0,0E0,0E0,0E0],"parents":[2147483647,0,0,1,1,2,2,3,3,4,4,5,5,6,6,7,7,8,8,9,9,10,10,11,11,12,12,13,13,14,14],"right_children":[2,4,6,8,10,12,14,16,18,20,22,24,26,28,30,-1,-1,-1,-1,-1,-1,-1,-1,-1,-1,-1,-1,-1,-1,-1,-1],"split_conditions":[9E0,5E0,1.8E1,4E0,5E0,1.5E1,4E0,3E0,2E0,7E0,8E0,7E0,3E0,2E0,7E0,-9.49071E-2,-4.8096027E-2,1.2388869E-1,2.4912914E-2,-6.0194936E-2,-8.205466E-2,-1.5421349E-1,-3.66293E-2,3.8985737E-2,-4.5311168E-2,2.1151245E-1,6.531127E-2,-1.5025914E-1,-7.4768186E-2,4.9217343E-2,-1.0005164E-1],"split_indices":[1,0,1,1,1,1,0,1,0,0,1,0,0,0,0,0,0,0,0,0,0,0,0,0,0,0,0,0,0,0,0],"split_type":[0,0,0,0,0,0,0,0,0,0,0,0,0,0,0,0,0,0,0,0,0,0,0,0,0,0,0,0,0,0,0],"sum_hessian":[4.873E3,1.178E3,3.695E3,5.97E2,5.81E2,2.049E3,1.646E3,2.52E2,3.45E2,3.7E2,2.11E2,1.289E3,7.6E2,5.64E2,1.082E3,2.27E2,2.5E1,7E1,2.75E2,1.59E2,2.11E2,1.46E2,6.5E1,1.054E3,2.35E2,2.02E2,5.58E2,2.01E2,3.63E2,7.61E2,3.21E2],"tree_param":{"num_deleted":"0","num_feature":"2","num_nodes":"31","size_leaf_vector":"1"}},{"base_weights":[-3.2617308E-3,8.758064E-2,-8.0526876E-1,-4.5318568E-1,2.8672963E-1,-1.3277992E0,-5.5935407E-1,-1.0861145E-1,-8.0645406E-1,5.4627717E-1,-4.5858126E-2,-1.4545484E0,-9.875721E-2,-1.2975192E-1,-1.4061148E-1,-8.148097E-2,4.0808443E-2,-6.560195E-2,-1.06591046E-1,2.1234244E-2,1.3915218E-1,-1.4258932E-1,1.6084587E-2,-1.3479958E-1,-1.8340161E-1,3.5709534E-2,-8.831808E-2],"categories":[],"categories_nodes":[],"categories_segments":[],"categories_sizes":[],"default_left":[0,0,0,0,0,0,0,0,0,0,0,0,0,0,0,0,0,0,0,0,0,0,0,0,0,0,0],"id":25,"left_children":[1,3,5,7,9,11,13,15,17,19,21,23,-1,25,-1,-1,-1,-1,-1,-1,-1,-1,-1,-1,-1,-1,-1],"loss_changes":[3.5517172E2,4.7171786E2,6.299228E1,1.4342876E2,2.7634283E2,5.3770447E0,1.2313567E2,2.1853658E2,2.2016876E1,5.0720178E2,4.007326E2,2.0967102E0,0E0,8.321326E1,0E0,0E0,0E0,0E0,0E0,0E0,0E0,0E0,0E0,0E0,0E0,0E0,0E0],"parents":[2147483647,0,0,1,1,2,2,3,3,4,4,5,5,6,6,7,7,8,8,9,9,10,10,11,11,13,13],"right_children":[2,4,6,8,10,12,14,16,18,20,22,24,-1,26,-1,-1,-1,-1,-1,-1,-1,-1,-1,-1,-1,-1,-1],"split_conditions":[2.2E1,9E0,4E0,5E0,1.7E1,3E0,7E0,4E0,5E0,1.5E1,2E0,2.3E1,-9.875721E-2,2.3E1,-1.4061148E-1,-8.148097E-2,4.0808443E-2,-6.560195E-2,-1.06591046E-1,2.1234244E-2,1.3915218E-1,-1.4258932E-1,1.6084587E-2,-1.3479958E-1,-1.8340161E-1,3.5709534E-2,-8.831808E-2],"split_indices":[1,1,0,0,1,0,0,1,1,1,0,1,0,1,0,0,0,0,0,0,0,0,0,0,0,0,0],"split_type":[0,0,0,0,0,0,0,0,0,0,0,0,0,0,0,0,0,0,0,0,0,0,0,0,0,0,0],"sum_hessian":[4.873E3,4.378E3,4.95E2,1.178E3,3.2E3,1.57E2,3.38E2,5.97E2,5.81E2,1.797E3,1.403E3,1.12E2,4.5E1,2.25E2,1.13E2,2.52E2,3.45E2,3.7E2,2.11E2,1.289E3,5.08E2,1.82E2,1.221E3,9.1E1,2.1E1,1.37E2,8.8E1],"tree_param":{"num_deleted":"0","num_feature":"2","num_nodes":"27","size_leaf_vector":"1"}},{"base_weights":[-3.097573E-3,7.878159E-2,-7.2597206E-1,-4.0804756E-1,2.5806704E-1,-1.1976583E0,-5.0398856E-1,-9.781811E-2,-7.2610456E-1,4.9173835E-1,-4.136249E-2,-1.3119096E0,-8.909617E-2,-1.1700949E-1,-1.2667367E-1,-7.3365085E-2,3.673943E-2,-7.8864E-2,-2.2524197E-2,1.911244E-2,1.2526427E-1,-1.284083E-1,1.4477434E-2,-1.2146615E-1,-1.6589509E-1,3.2164473E-2,-7.958552E-2],"categories":[],"categories_nodes":[],"categories_segments":[],"categories_sizes":[],"default_left":[0,0,0,0,0,0,0,0,0,0,0,0,0,0,0,0,0,0,0,0,0,0,0,0,0,0,0],"id":26,"left_children":[1,3,5,7,9,11,13,15,17,19,21,23,-1,25,-1,-1,-1,-1,-1,-1,-1,-1,-1,-1,-1,-1,-1],"loss_changes":[2.8854126E2,3.8231052E2,5.133084E1,1.1626164E2,2.2398819E2,4.3675537E0,9.991359E1,1.7715631E2,1.8051605E1,4.1103238E2,3.249536E2,1.798584E0,0E0,6.755393E1,0E0,0E0,0E0,0E0,0E0,0E0,0E0,0E0,0E0,0E0,0E0,0E0,0E0],"parents":[2147483647,0,0,1,1,2,2,3,3,4,4,5,5,6,6,7,7,8,8,9,9,10,10,11,11,13,13],"right_children":[2,4,6,8,10,12,14,16,18,20,22,24,-1,26,-1,-1,-1,-1,-1,-1,-1,-1,-1,-1,-1,-1,-1],"split_conditions":[2.2E1,9E0,4E0,5E0,1.7E1,3E0,7E0,4E0,8E0,1.5E1,2E0,2.3E1,-8.909617E-2,2.3E1,-1.2667367E-1,-7.3365085E-2,3.673943E-2,-7.8864E-2,-2.2524197E-2,1.911244E-2,1.2526427E-1,-1.284083E-1,1.4477434E-2,-1.2146615E-1,-1.6589509E-1,3.2164473E-2,-7.958552E-2],"split_indices":[1,1,0,0,1,0,0,1,1,1,0,1,0,1,0,0,0,0,0,0,0,0,0,0,0,0,0],"split_type":[0,0,0,0,0,0,0,0,0,0,0,0,0,0,0,0,0,0,0,0,0,0,0,0,0,0,0],"sum_hessian":[4.873E3,4.378E3,4.95E2,1.178E3,3.2E3,1.57E2,3.38E2,5.97E2,5.81E2,1.797E3,1.403E3,1.12E2,4.5E1,2.25E2,1.13E2,2.52E2,3.45E2,5.16E2,6.5E1,1.289E3,5.08E2,1.82E2,1.221E3,9.1E1,2.1E1,1.37E2,8.8E1],"tree_param":{"num_deleted":"0","num_feature":"2","num_nodes":"27","size_leaf_vector":"1"}},{"base_weights":[-2.9227112E-3,7.087903E-2,-6.54485E-1,-3.6735982E-1,2.3227006E-1,-9.812415E-1,-3.9260438E-1,-8.8097535E-2,-6.536682E-1,4.4264516E-1,-3.7307337E-2,-1.1832616E0,-7.60783E-2,8.0188906E-1,-7.927098E-1,-6.605758E-2,3.307611E-2,-5.11943E-2,-8.986041E-2,1.7202757E-2,1.1276237E-1,-1.15637615E-1,1.3030878E-2,-1.0945157E-1,-1.5005967E-1,9.6544914E-2,4.0114664E-2,-3.0116564E-2,-1.2113445E-1],"categories":[],"categories_nodes":[],"categories_segments":[],"categories_sizes":[],"default_left":[0,0,0,0,0,0,0,0,0,0,0,0,0,0,0,0,0,0,0,0,0,0,0,0,0,0,0,0,0],"id":27,"left_children":[1,3,5,7,9,11,13,15,17,19,21,23,-1,25,27,-1,-1,-1,-1,-1,-1,-1,-1,-1,-1,-1,-1,-1,-1],"loss_changes":[2.3441962E2,3.0980246E2,4.2058075E1,9.420952E1,1.8155284E2,8.897934E0,1.3302043E2,1.4361137E2,1.9743301E1,3.3309622E2,2.6350455E2,1.5398865E0,0E0,4.200897E0,4.243689E1,0E0,0E0,0E0,0E0,0E0,0E0,0E0,0E0,0E0,0E0,0E0,0E0,0E0,0E0],"parents":[2147483647,0,0,1,1,2,2,3,3,4,4,5,5,6,6,7,7,8,8,9,9,10,10,11,11,13,13,14,14],"right_children":[2,4,6,8,10,12,14,16,18,20,22,24,-1,26,28,-1,-1,-1,-1,-1,-1,-1,-1,-1,-1,-1,-1,-1,-1],"split_conditions":[2.2E1,9E0,5E0,5E0,1.7E1,3E0,6E0,4E0,5E0,1.5E1,2E0,2.3E1,-7.60783E-2,2.3E1,2.3E1,-6.605758E-2,3.307611E-2,-5.11943E-2,-8.986041E-2,1.7202757E-2,1.1276237E-1,-1.15637615E-1,1.3030878E-2,-1.0945157E-1,-1.5005967E-1,9.6544914E-2,4.0114664E-2,-3.0116564E-2,-1.2113445E-1],"split_indices":[1,1,0,0,1,0,0,1,1,1,0,1,0,1,1,0,0,0,0,0,0,0,0,0,0,0,0,0,0],"split_type":[0,0,0,0,0,0,0,0,0,0,0,0,0,0,0,0,0,0,0,0,0,0,0,0,0,0,0,0,0],"sum_hessian":[4.873E3,4.378E3,4.95E2,1.178E3,3.2E3,2.19E2,2.76E2,5.97E2,5.81E2,1.797E3,1.403E3,1.12E2,1.07E2,6.9E1,2.07E2,2.52E2,3.45E2,3.7E2,2.11E2,1.289E3,5.08E2,1.82E2,1.221E3,9.1E1,2.1E1,4.8E1,2.1E1,9.6E1,1.11E2],"tree_param":{"num_deleted":"0","num_feature":"2","num_nodes":"29","size_leaf_vector":"1"}},{"base_weights":[-2.732301E-3,6.37577E-2,-5.8974236E-1,-3.3077142E-1,2.090517E-1,-9.7562397E-1,-4.081523E-1,-7.9342626E-2,-5.88544E-1,3.9845318E-1,-3.3649806E-2,-9.072023E-1,-1.357358E-1,-7.702246E-2,-1.0610225E-1,-3.83658E-2,6.1286796E-2,-6.47914E-2,-1.1456099E-2,1.5483853E-2,1.01508275E-1,-1.04137056E-1,1.1728845E-2,-9.8625354E-2,-7.29378E-2,2.898768E-2,-6.4505704E-2],"categories":[],"categories_nodes":[],"categories_segments":[],"categories_sizes":[],"default_left":[0,0,0,0,0,0,0,0,0,0,0,0,0,0,0,0,0,0,0,0,0,0,0,0,0,0,0],"id":28,"left_children":[1,3,5,7,9,11,13,15,17,19,21,23,-1,25,-1,-1,-1,-1,-1,-1,-1,-1,-1,-1,-1,-1,-1],"loss_changes":[1.902713E2,2.5108528E2,3.435762E1,7.636598E1,1.4715704E2,2.8953857E0,7.3204926E1,1.2620402E2,1.6303497E1,2.6993835E2,2.1367558E2,1.2064896E0,0E0,4.728797E1,0E0,0E0,0E0,0E0,0E0,0E0,0E0,0E0,0E0,0E0,0E0,0E0,0E0],"parents":[2147483647,0,0,1,1,2,2,3,3,4,4,5,5,6,6,7,7,8,8,9,9,10,10,11,11,13,13],"right_children":[2,4,6,8,10,12,14,16,18,20,22,24,-1,26,-1,-1,-1,-1,-1,-1,-1,-1,-1,-1,-1,-1,-1],"split_conditions":[2.2E1,9E0,4E0,5E0,1.7E1,2.3E1,7E0,5E0,8E0,1.5E1,2E0,3E0,-1.357358E-1,2.3E1,-1.0610225E-1,-3.83658E-2,6.1286796E-2,-6.47914E-2,-1.1456099E-2,1.5483853E-2,1.01508275E-1,-1.04137056E-1,1.1728845E-2,-9.8625354E-2,-7.29378E-2,2.898768E-2,-6.4505704E-2],"split_indices":[1,1,0,0,1,1,0,1,1,1,0,0,0,1,0,0,0,0,0,0,0,0,0,0,0,0,0],"split_type":[0,0,0,0,0,0,0,0,0,0,0,0,0,0,0,0,0,0,0,0,0,0,0,0,0,0,0],"sum_hessian":[4.873E3,4.378E3,4.95E2,1.178E3,3.2E3,1.57E2,3.38E2,5.97E2,5.81E2,1.797E3,1.403E3,1.36E2,2.1E1,2.25E2,1.13E2,4.15E2,1.82E2,5.16E2,6.5E1,1.289E3,5.08E2,1.82E2,1.221E3,9.1E1,4.5E1,1.37E2,8.8E1],"tree_param":{"num_deleted":"0","num_feature":"2","num_nodes":"27","size_leaf_vector":"1"}},{"base_weights":[-2.5571967E-3,5.737524E-2,-5.316733E-1,-2.9773954E-1,1.8815404E-1,-8.160668E-1,-3.038818E-1,-7.1370095E-2,-5.298206E-1,3.5867268E-1,-3.0350696E-2,-9.625828E-1,-6.552115E-2,7.231265E-1,-6.4804864E-1,-5.5656504E-2,2.8361747E-2,-3.9627027E-2,-7.610347E-2,1.3936668E-2,9.137731E-2,-9.378023E-2,1.055691E-2,-8.887004E-2,-1.2277919E-1,8.424779E-2,4.2442914E-2,-2.3041418E-2,-1.0039637E-1],"categories":[],"categories_nodes":[],"categories_segments":[],"categories_sizes":[],"default_left":[0,0,0,0,0,0,0,0,0,0,0,0,0,0,0,0,0,0,0,0,0,0,0,0,0,0,0,0,0],"id":29,"left_children":[1,3,5,7,9,11,13,15,17,19,21,23,-1,25,27,-1,-1,-1,-1,-1,-1,-1,-1,-1,-1,-1,-1,-1,-1],"loss_changes":[1.5459099E2,2.0342328E2,3.1884094E1,6.19022E1,1.1927736E2,4.554245E0,9.837765E1,1.0315628E2,1.7669846E1,2.187555E2,1.7326926E2,1.1230087E0,0E0,2.1379204E0,3.0686287E1,0E0,0E0,0E0,0E0,0E0,0E0,0E0,0E0,0E0,0E0,0E0,0E0,0E0,0E0],"parents":[2147483647,0,0,1,1,2,2,3,3,4,4,5,5,6,6,7,7,8,8,9,9,10,10,11,11,13,13,14,14],"right_children":[2,4,6,8,10,12,14,16,18,20,22,24,-1,26,28,-1,-1,-1,-1,-1,-1,-1,-1,-1,-1,-1,-1,-1,-1],"split_conditions":[2.2E1,9E0,5E0,5E0,1.7E1,3E0,6E0,4E0,5E0,1.5E1,2E0,2.3E1,-6.552115E-2,2.3E1,2.3E1,-5.5656504E-2,2.8361747E-2,-3.9627027E-2,-7.610347E-2,1.3936668E-2,9.137731E-2,-9.378023E-2,1.055691E-2,-8.887004E-2,-1.2277919E-1,8.424779E-2,4.2442914E-2,-2.3041418E-2,-1.0039637E-1],"split_indices":[1,1,0,0,1,0,0,1,1,1,0,1,0,1,1,0,0,0,0,0,0,0,0,0,0,0,0,0,0],"split_type":[0,0,0,0,0,0,0,0,0,0,0,0,0,0,0,0,0,0,0,0,0,0,0,0,0,0,0,0,0],"sum_hessian":[4.873E3,4.378E3,4.95E2,1.178E3,3.2E3,2.19E2,2.76E2,5.97E2,5.81E2,1.797E3,1.403E3,1.12E2,1.07E2,6.9E1,2.07E2,2.52E2,3.45E2,3.7E2,2.11E2,1.289E3,5.08E2,1.82E2,1.221E3,9.1E1,2.1E1,4.8E1,2.1E1,9.6E1,1.11E2],"tree_param":{"num_deleted":"0","num_feature":"2","num_nodes":"29","size_leaf_vector":"1"}},{"base_weights":[-2.3826463E-3,8.328536E-2,-3.526532E-1,-4.9571863E-1,1.3458265E-1,-1.7504476E-1,-1.0082499E0,-5.4103553E-1,-3.780233E-1,2.2082824E-1,-2.4626748E-1,-4.8003465E-1,4.5416537E-1,-1.6873913E-1,-8.163836E-1,-4.2990785E-2,-6.0909636E-2,-2.0996125E-2,-5.090151E-2,-5.1576137E-3,2.889513E-2,-1.0713729E-2,-6.1771434E-2,-3.585836E-2,-1.0491456E-1,4.0727407E-1,-2.4389802E-2,-6.239125E-2,-8.902629E-2],"categories":[],"categories_nodes":[],"categories_segments":[],"categories_sizes":[],"default_left":[0,0,0,0,0,0,0,0,0,0,0,0,0,0,0,0,0,0,0,0,0,0,0,0,0,0,0,0,0],"id":30,"left_children":[1,3,5,7,9,11,13,15,17,19,21,23,25,-1,27,-1,-1,-1,-1,-1,-1,-1,-1,-1,-1,-1,-1,-1,-1],"loss_changes":[1.462834E2,1.1640685E2,1.11372536E2,1.4968948E0,1.1826944E2,1.4510458E2,2.5204529E1,1.4626083E0,1.9184828E0,5.447975E1,3.4300674E1,3.4805428E1,6.24914E2,0E0,1.7339096E0,0E0,0E0,0E0,0E0,0E0,0E0,0E0,0E0,0E0,0E0,0E0,0E0,0E0,0E0],"parents":[2147483647,0,0,1,1,2,2,3,3,4,4,5,5,6,6,7,7,8,8,9,9,10,10,11,11,12,12,14,14],"right_children":[2,4,6,8,10,12,14,16,18,20,22,24,26,-1,28,-1,-1,-1,-1,-1,-1,-1,-1,-1,-1,-1,-1,-1,-1],"split_conditions":[7E0,3E0,2E1,5E0,2.1E1,1.5E1,2.1E1,2E0,6E0,9E0,6E0,1.3E1,1.6E1,-1.6873913E-1,2.2E1,-4.2990785E-2,-6.0909636E-2,-2.0996125E-2,-5.090151E-2,-5.1576137E-3,2.889513E-2,-1.0713729E-2,-6.1771434E-2,-3.585836E-2,-1.0491456E-1,4.0727407E-1,-2.4389802E-2,-6.239125E-2,-8.902629E-2],"split_indices":[0,1,1,0,1,1,1,0,0,1,0,1,1,0,1,0,0,0,0,0,0,0,0,0,0,0,0,0,0],"split_type":[0,0,0,0,0,0,0,0,0,0,0,0,0,0,0,0,0,0,0,0,0,0,0,0,0,0,0,0,0],"sum_hessian":[4.873E3,3.916E3,9.57E2,3.18E2,3.598E3,7.54E2,2.03E2,2.27E2,9.1E1,2.934E3,6.64E2,5.08E2,2.46E2,4.3E1,1.6E2,8.9E1,1.38E2,4.1E1,5E1,5.87E2,2.347E3,4.84E2,1.8E2,4.2E2,8.8E1,3.9E1,2.07E2,4.7E1,1.13E2],"tree_param":{"num_deleted":"0","num_feature":"2","num_nodes":"29","size_leaf_vector":"1"}},{"base_weights":[-2.2062785E-3,7.489977E-2,-3.174695E-1,-4.4669786E-1,1.2111115E-1,-1.5721984E-1,-9.0899426E-1,-4.8738766E-1,-3.410025E-1,1.987539E-1,-2.2174984E-1,-4.7548768E-1,3.547458E-1,-1.5224868E-1,-7.356857E-1,-3.8739488E-2,-5.486248E-2,-1.8946508E-2,-4.591117E-2,-1.1168732E-2,2.5325326E-2,-9.644578E-3,-5.562842E-2,-3.228106E-2,-1.8624783E-1,1.78986E-1,-2.196255E-2,-5.628211E-2,-8.0201745E-2],"categories":[],"categories_nodes":[],"categories_segments":[],"categories_sizes":[],"default_left":[0,0,0,0,0,0,0,0,0,0,0,0,0,0,0,0,0,0,0,0,0,0,0,0,0,0,0,0,0],"id":31,"left_children":[1,3,5,7,9,11,13,15,17,19,21,23,25,-1,27,-1,-1,-1,-1,-1,-1,-1,-1,-1,-1,-1,-1,-1,-1],"loss_changes":[1.18504395E2,9.446846E1,9.0667496E1,1.2057343E0,9.585185E1,1.2319004E2,2.05699E1,1.1835747E0,1.5596275E0,4.968512E1,2.7822159E1,9.80797E1,2.3943674E2,0E0,1.3947067E0,0E0,0E0,0E0,0E0,0E0,0E0,0E0,0E0,0E0,0E0,0E0,0E0,0E0,0E0],"parents":[2147483647,0,0,1,1,2,2,3,3,4,4,5,5,6,6,7,7,8,8,9,9,10,10,11,11,12,12,14,14],"right_children":[2,4,6,8,10,12,14,16,18,20,22,24,26,-1,28,-1,-1,-1,-1,-1,-1,-1,-1,-1,-1,-1,-1,-1,-1],"split_conditions":[7E0,3E0,2E1,5E0,2.1E1,1.4E1,2.1E1,2E0,6E0,2E0,6E0,1.3E1,1.6E1,-1.5224868E-1,2.2E1,-3.8739488E-2,-5.486248E-2,-1.8946508E-2,-4.591117E-2,-1.1168732E-2,2.5325326E-2,-9.644578E-3,-5.562842E-2,-3.228106E-2,-1.8624783E-1,1.78986E-1,-2.196255E-2,-5.628211E-2,-8.0201745E-2],"split_indices":[0,1,1,0,1,1,1,0,0,0,0,1,1,0,1,0,0,0,0,0,0,0,0,0,0,0,0,0,0],"split_type":[0,0,0,0,0,0,0,0,0,0,0,0,0,0,0,0,0,0,0,0,0,0,0,0,0,0,0,0,0],"sum_hessian":[4.873E3,3.916E3,9.57E2,3.18E2,3.598E3,7.54E2,2.03E2,2.27E2,9.1E1,2.934E3,6.64E2,4.65E2,2.89E2,4.3E1,1.6E2,8.9E1,1.38E2,4.1E1,5E1,4.38E2,2.496E3,4.84E2,1.8E2,4.2E2,4.5E1,8.2E1,2.07E2,4.7E1,1.13E2],"tree_param":{"num_deleted":"0","num_feature":"2","num_nodes":"29","size_leaf_vector":"1"}},{"base_weights":[-2.1006677E-3,6.735607E-2,-2.8608808E-1,-2.7099073E-1,1.2827897E-1,-1.4157921E-1,-8.195102E-1,-4.0252477E-1,-1.20168045E-1,2.1034214E-1,-1.9967297E-1,-4.0432605E-1,4.0044394E-1,-1.3736987E-1,-6.629649E-1,-4.390594E-2,-3.076071E-2,-7.2307303E-3,-6.2766984E-2,-1.3466194E-2,2.6978001E-2,-8.682116E-3,-5.009628E-2,-2.9060602E-2,-9.377171E-2,3.5011375E-1,-1.9776847E-2,-5.077116E-2,-7.2251916E-2],"categories":[],"categories_nodes":[],"categories_segments":[],"categories_sizes":[],"default_left":[0,0,0,0,0,0,0,0,0,0,0,0,0,0,0,0,0,0,0,0,0,0,0,0,0,0,0,0,0],"id":32,"left_children":[1,3,5,7,9,11,13,15,17,19,21,23,25,-1,27,-1,-1,-1,-1,-1,-1,-1,-1,-1,-1,-1,-1,-1,-1],"loss_changes":[9.615814E1,8.0776146E1,7.373068E1,1.1814945E1,8.9392395E1,1.07685135E2,1.6787415E1,9.711609E-1,6.7556505E0,5.45011E1,2.2567238E1,3.0602036E1,4.5884613E2,0E0,1.1217728E0,0E0,0E0,0E0,0E0,0E0,0E0,0E0,0E0,0E0,0E0,0E0,0E0,0E0,0E0],"parents":[2147483647,0,0,1,1,2,2,3,3,4,4,5,5,6,6,7,7,8,8,9,9,10,10,11,11,12,12,14,14],"right_children":[2,4,6,8,10,12,14,16,18,20,22,24,26,-1,28,-1,-1,-1,-1,-1,-1,-1,-1,-1,-1,-1,-1,-1,-1],"split_conditions":[7E0,6E0,2E1,3E0,2.1E1,1.5E1,2.1E1,5E0,5E0,2E0,6E0,1.3E1,1.6E1,-1.3736987E-1,2.2E1,-4.390594E-2,-3.076071E-2,-7.2307303E-3,-6.2766984E-2,-1.3466194E-2,2.6978001E-2,-8.682116E-3,-5.009628E-2,-2.9060602E-2,-9.377171E-2,3.5011375E-1,-1.9776847E-2,-5.077116E-2,-7.2251916E-2],"split_indices":[0,1,1,1,1,1,1,0,1,0,0,1,1,0,1,0,0,0,0,0,0,0,0,0,0,0,0,0,0],"split_type":[0,0,0,0,0,0,0,0,0,0,0,0,0,0,0,0,0,0,0,0,0,0,0,0,0,0,0,0,0],"sum_hessian":[4.873E3,3.916E3,9.57E2,5.97E2,3.319E3,7.54E2,2.03E2,3.18E2,2.79E2,2.655E3,6.64E2,5.08E2,2.46E2,4.3E1,1.6E2,2.27E2,9.1E1,2.56E2,2.3E1,3.9E2,2.265E3,4.84E2,1.8E2,4.2E2,8.8E1,3.9E1,2.07E2,4.7E1,1.13E2],"tree_param":{"num_deleted":"0","num_feature":"2","num_nodes":"29","size_leaf_vector":"1"}},{"base_weights":[-1.940198E-3,6.0572237E-2,-2.575344E-1,-2.4413355E-1,1.15437746E-1,-1.2714635E-1,-7.3883575E-1,-3.6250633E-1,-1.0840121E-1,1.8931335E-1,-1.7979392E-1,-3.6413488E-1,3.6173746E-1,-1.2394506E-1,-5.974327E-1,-3.9534606E-2,-2.771807E-2,-6.5104687E-3,-5.6751806E-2,3.1958602E-2,2.025694E-3,-1.0500042E-2,-5.5620667E-2,-2.6161442E-2,-8.449998E-2,3.1597775E-1,-1.7808625E-2,-4.5799855E-2,-6.509011E-2],"categories":[],"categories_nodes":[],"categories_segments":[],"categories_sizes":[],"default_left":[0,0,0,0,0,0,0,0,0,0,0,0,0,0,0,0,0,0,0,0,0,0,0,0,0,0,0,0,0],"id":33,"left_children":[1,3,5,7,9,11,13,15,17,19,21,23,25,-1,27,-1,-1,-1,-1,-1,-1,-1,-1,-1,-1,-1,-1,-1,-1],"loss_changes":[7.789148E1,6.551195E1,6.0026257E1,9.568779E0,7.2444626E1,8.760591E1,1.3700356E1,7.8427887E-1,5.528938E0,5.8487747E1,1.8663492E1,2.4871857E1,3.7364343E2,0E0,9.02195E-1,0E0,0E0,0E0,0E0,0E0,0E0,0E0,0E0,0E0,0E0,0E0,0E0,0E0,0E0],"parents":[2147483647,0,0,1,1,2,2,3,3,4,4,5,5,6,6,7,7,8,8,9,9,10,10,11,11,12,12,14,14],"right_children":[2,4,6,8,10,12,14,16,18,20,22,24,26,-1,28,-1,-1,-1,-1,-1,-1,-1,-1,-1,-1,-1,-1,-1,-1],"split_conditions":[7E0,6E0,2E1,3E0,2.1E1,1.5E1,2.1E1,5E0,5E0,5E0,2.3E1,1.3E1,1.6E1,-1.2394506E-1,2.2E1,-3.9534606E-2,-2.771807E-2,-6.5104687E-3,-5.6751806E-2,3.1958602E-2,2.025694E-3,-1.0500042E-2,-5.5620667E-2,-2.6161442E-2,-8.449998E-2,3.1597775E-1,-1.7808625E-2,-4.5799855E-2,-6.509011E-2],"split_indices":[0,1,1,1,1,1,1,0,1,0,1,1,1,0,1,0,0,0,0,0,0,0,0,0,0,0,0,0,0],"split_type":[0,0,0,0,0,0,0,0,0,0,0,0,0,0,0,0,0,0,0,0,0,0,0,0,0,0,0,0,0],"sum_hessian":[4.873E3,3.916E3,9.57E2,5.97E2,3.319E3,7.54E2,2.03E2,3.18E2,2.79E2,2.655E3,6.64E2,5.08E2,2.46E2,4.3E1,1.6E2,2.27E2,9.1E1,2.56E2,2.3E1,1.499E3,1.156E3,5.55E2,1.09E2,4.2E2,8.8E1,3.9E1,2.07E2,4.7E1,1.13E2],"tree_param":{"num_deleted":"0","num_feature":"2","num_nodes":"29","size_leaf_vector":"1"}},{"base_weights":[-1.789479E-3,-2.168295E-1,6.1905384E-2,-1.0844246E-2,-4.5466772E-1,2.3971671E-1,-1.12567715E-1,-2.2005403E-1,4.647957E-1,-2.722773E-1,-1.0305319E0,8.127518E-2,6.610302E-1,-8.564122E-1,-1.350438E-3,-3.5598483E-2,-5.490971E-3,9.5518015E-2,-5.2547986E-3,-2.2027427E-2,-3.8113873E-2,-7.6620124E-2,-1.258675E-1,1.7804008E-2,-8.091365E-2,2.3418222E-1,1.7549654E-2,-1.2760861E-1,-3.133748E-2,1.3747348E-2,-4.898856E-2],"categories":[],"categories_nodes":[],"categories_segments":[],"categories_sizes":[],"default_left":[0,0,0,0,0,0,0,0,0,0,0,0,0,0,0,0,0,0,0,0,0,0,0,0,0,0,0,0,0,0,0],"id":34,"left_children":[1,3,5,7,9,11,13,15,17,19,21,23,25,27,29,-1,-1,-1,-1,-1,-1,-1,-1,-1,-1,-1,-1,-1,-1,-1,-1],"loss_changes":[6.677233E1,5.457122E1,1.167056E2,5.9608383E1,5.4021004E1,1.2430814E2,1.571E2,9.318903E0,4.6476807E1,2.1465263E0,6.5134583E0,1.16891655E2,4.1497424E2,5.5891052E1,1.1217441E2,0E0,0E0,0E0,0E0,0E0,0E0,0E0,0E0,0E0,0E0,0E0,0E0,0E0,0E0,0E0,0E0],"parents":[2147483647,0,0,1,1,2,2,3,3,4,4,5,5,6,6,7,7,8,8,9,9,10,10,11,11,12,12,13,13,14,14],"right_children":[2,4,6,8,10,12,14,16,18,20,22,24,26,28,30,-1,-1,-1,-1,-1,-1,-1,-1,-1,-1,-1,-1,-1,-1,-1,-1],"split_conditions":[8E0,5E0,1.7E1,5E0,6E0,1.5E1,2E0,3E0,3E0,4E0,7E0,1.4E1,3E0,2.1E1,7E0,-3.5598483E-2,-5.490971E-3,9.5518015E-2,-5.2547986E-3,-2.2027427E-2,-3.8113873E-2,-7.6620124E-2,-1.258675E-1,1.7804008E-2,-8.091365E-2,2.3418222E-1,1.7549654E-2,-1.2760861E-1,-3.133748E-2,1.3747348E-2,-4.898856E-2],"split_indices":[1,0,1,1,1,1,0,1,0,1,1,1,0,1,0,0,0,0,0,0,0,0,0,0,0,0,0,0,0,0,0],"split_type":[0,0,0,0,0,0,0,0,0,0,0,0,0,0,0,0,0,0,0,0,0,0,0,0,0,0,0,0,0,0,0],"sum_hessian":[4.873E3,1.113E3,3.76E3,5.97E2,5.16E2,1.862E3,1.898E3,4.15E2,1.82E2,3.93E2,1.23E2,1.354E3,5.08E2,2.46E2,1.652E3,2.27E2,1.88E2,9.3E1,8.9E1,2.68E2,1.25E2,5.9E1,6.4E1,1.222E3,1.32E2,1.13E2,3.95E2,1.38E2,1.08E2,1.287E3,3.65E2],"tree_param":{"num_deleted":"0","num_feature":"2","num_nodes":"31","size_leaf_vector":"1"}},{"base_weights":[-1.6553028E-3,3.6240105E-2,-3.3621645E-1,-1.8677393E-1,1.1836985E-1,-6.887248E-1,-5.503213E-2,-9.677478E-3,-3.684181E-1,-2.4790852E-1,1.6883099E-1,-8.087127E-1,-5.5680484E-2,6.915845E-1,-3.0603278E-1,-1.981472E-2,4.188093E-2,-2.295717E-2,-6.0966145E-2,2.0694628E-2,-7.5857624E-2,4.288427E-2,6.1511307E-4,-7.542115E-2,-9.998678E-2,7.852165E-2,4.5160502E-2,5.3558755E-3,-6.1473228E-2],"categories":[],"categories_nodes":[],"categories_segments":[],"categories_sizes":[],"default_left":[0,0,0,0,0,0,0,0,0,0,0,0,0,0,0,0,0,0,0,0,0,0,0,0,0,0,0,0,0],"id":35,"left_children":[1,3,5,7,9,11,13,15,17,19,21,23,-1,25,27,-1,-1,-1,-1,-1,-1,-1,-1,-1,-1,-1,-1,-1,-1],"loss_changes":[6.180637E1,8.022825E1,4.9125534E1,3.7923145E1,5.9205364E1,3.0320358E0,5.2121796E1,4.8375553E1,1.9354576E1,9.028149E1,1.1902582E2,4.231491E-1,0E0,1.2182732E0,2.312211E1,0E0,0E0,0E0,0E0,0E0,0E0,0E0,0E0,0E0,0E0,0E0,0E0,0E0,0E0],"parents":[2147483647,0,0,1,1,2,2,3,3,4,4,5,5,6,6,7,7,8,8,9,9,10,10,11,11,13,13,14,14],"right_children":[2,4,6,8,10,12,14,16,18,20,22,24,-1,26,28,-1,-1,-1,-1,-1,-1,-1,-1,-1,-1,-1,-1,-1,-1],"split_conditions":[2.2E1,9E0,5E0,5E0,2E0,3E0,6E0,5E0,5E0,1.7E1,5E0,2.3E1,-5.5680484E-2,2.3E1,2.3E1,-1.981472E-2,4.188093E-2,-2.295717E-2,-6.0966145E-2,2.0694628E-2,-7.5857624E-2,4.288427E-2,6.1511307E-4,-7.542115E-2,-9.998678E-2,7.852165E-2,4.5160502E-2,5.3558755E-3,-6.1473228E-2],"split_indices":[1,1,0,0,0,0,0,1,1,1,0,1,0,1,1,0,0,0,0,0,0,0,0,0,0,0,0,0,0],"split_type":[0,0,0,0,0,0,0,0,0,0,0,0,0,0,0,0,0,0,0,0,0,0,0,0,0,0,0,0,0],"sum_hessian":[4.873E3,4.378E3,4.95E2,1.178E3,3.2E3,2.19E2,2.76E2,5.97E2,5.81E2,3.87E2,2.813E3,1.12E2,1.07E2,6.9E1,2.07E2,4.15E2,1.82E2,3.7E2,2.11E2,2.05E2,1.82E2,1.082E3,1.731E3,9.1E1,2.1E1,4.8E1,2.1E1,9.6E1,1.11E2],"tree_param":{"num_deleted":"0","num_feature":"2","num_nodes":"29","size_leaf_vector":"1"}},{"base_weights":[-1.5382671E-3,3.2599464E-2,-3.029245E-1,-1.791837E-1,1.0482661E-1,-6.2090284E-1,-4.9284972E-2,-8.673047E-3,-3.760622E-1,-2.2326005E-1,1.4900611E-1,-7.293937E-1,-5.0164014E-1,6.2419295E-1,-2.7569926E-1,-1.7838014E-2,3.7715662E-2,-2.2008426E-2,-8.686368E-2,1.8635202E-2,-6.8313345E-2,3.8599774E-2,6.0951756E-4,-6.7961E-2,-9.044258E-2,-5.212124E-2,-3.8946167E-2,7.082972E-2,4.0849745E-2,4.825813E-3,-5.5380788E-2],"categories":[],"categories_nodes":[],"categories_segments":[],"categories_sizes":[],"default_left":[0,0,0,0,0,0,0,0,0,0,0,0,0,0,0,0,0,0,0,0,0,0,0,0,0,0,0,0,0,0,0],"id":36,"left_children":[1,3,5,7,9,11,13,15,17,19,21,23,25,27,29,-1,-1,-1,-1,-1,-1,-1,-1,-1,-1,-1,-1,-1,-1,-1,-1],"loss_changes":[5.015672E1,6.700212E1,3.9972733E1,3.739359E1,4.737297E1,2.480667E0,4.241044E1,3.922314E1,3.9530342E1,7.321474E1,9.750563E1,3.6999512E-1,3.4130096E-2,9.80526E-1,1.8766558E1,0E0,0E0,0E0,0E0,0E0,0E0,0E0,0E0,0E0,0E0,0E0,0E0,0E0,0E0,0E0,0E0],"parents":[2147483647,0,0,1,1,2,2,3,3,4,4,5,5,6,6,7,7,8,8,9,9,10,10,11,11,12,12,13,13,14,14],"right_children":[2,4,6,8,10,12,14,16,18,20,22,24,26,28,30,-1,-1,-1,-1,-1,-1,-1,-1,-1,-1,-1,-1,-1,-1,-1,-1],"split_conditions":[2.2E1,8E0,5E0,5E0,2E0,3E0,6E0,5E0,6E0,1.7E1,5E0,2.3E1,2.3E1,2.3E1,2.3E1,-1.7838014E-2,3.7715662E-2,-2.2008426E-2,-8.686368E-2,1.8635202E-2,-6.8313345E-2,3.8599774E-2,6.0951756E-4,-6.7961E-2,-9.044258E-2,-5.212124E-2,-3.8946167E-2,7.082972E-2,4.0849745E-2,4.825813E-3,-5.5380788E-2],"split_indices":[1,1,0,0,0,0,0,1,1,1,0,1,1,1,1,0,0,0,0,0,0,0,0,0,0,0,0,0,0,0,0],"split_type":[0,0,0,0,0,0,0,0,0,0,0,0,0,0,0,0,0,0,0,0,0,0,0,0,0,0,0,0,0,0,0],"sum_hessian":[4.873E3,4.378E3,4.95E2,1.113E3,3.265E3,2.19E2,2.76E2,5.97E2,5.16E2,3.87E2,2.878E3,1.12E2,1.07E2,6.9E1,2.07E2,4.15E2,1.82E2,3.93E2,1.23E2,2.05E2,1.82E2,1.082E3,1.796E3,9.1E1,2.1E1,8.8E1,1.9E1,4.8E1,2.1E1,9.6E1,1.11E2],"tree_param":{"num_deleted":"0","num_feature":"2","num_nodes":"31","size_leaf_vector":"1"}},{"base_weights":[-1.4435445E-3,4.9421918E-2,-1.7641386E-1,1.9560069E-1,-8.1109144E-2,-5.044173E-1,-2.8147988E-3,-8.913681E-2,5.7079995E-1,-3.260898E-1,1.536692E-2,-1.1503474E0,-2.370001E-1,5.421317E-1,-3.6400843E-1,-2.274958E-2,5.754175E-3,2.1484395E-2,1.536174E-1,2.0123634E-2,-6.5891735E-2,-3.5301983E-2,1.5200048E-2,-9.436502E-2,-1.507746E-1,2.8014762E-2,-6.053589E-2,1.480729E-1,2.267561E-2,-1.6703378E-2,-5.8430333E-2],"categories":[],"categories_nodes":[],"categories_segments":[],"categories_sizes":[],"default_left":[0,0,0,0,0,0,0,0,0,0,0,0,0,0,0,0,0,0,0,0,0,0,0,0,0,0,0,0,0,0,0],"id":37,"left_children":[1,3,5,7,9,11,13,15,17,19,21,23,25,27,29,-1,-1,-1,-1,-1,-1,-1,-1,-1,-1,-1,-1,-1,-1,-1,-1],"loss_changes":[4.3387062E1,7.208432E1,6.25199E1,1.9042781E2,4.7180008E1,6.536584E1,1.4171898E2,2.0591509E1,2.6392194E2,9.911949E1,7.218226E1,6.7771454E0,5.1603485E1,8.46193E1,1.8691353E1,0E0,0E0,0E0,0E0,0E0,0E0,0E0,0E0,0E0,0E0,0E0,0E0,0E0,0E0,0E0,0E0],"parents":[2147483647,0,0,1,1,2,2,3,3,4,4,5,5,6,6,7,7,8,8,9,9,10,10,11,11,12,12,13,13,14,14],"right_children":[2,4,6,8,10,12,14,16,18,20,22,24,26,28,30,-1,-1,-1,-1,-1,-1,-1,-1,-1,-1,-1,-1,-1,-1,-1,-1],"split_conditions":[2E1,5E0,4E0,1.3E1,6E0,2.1E1,6E0,3E0,4E0,1.1E1,8E0,3E0,2.2E1,2.1E1,7E0,-2.274958E-2,5.754175E-3,2.1484395E-2,1.536174E-1,2.0123634E-2,-6.5891735E-2,-3.5301983E-2,1.5200048E-2,-9.436502E-2,-1.507746E-1,2.8014762E-2,-6.053589E-2,1.480729E-1,2.267561E-2,-1.6703378E-2,-5.8430333E-2],"split_indices":[1,0,0,1,0,1,0,0,0,1,1,0,1,1,0,0,0,0,0,0,0,0,0,0,0,0,0,0,0,0,0],"split_type":[0,0,0,0,0,0,0,0,0,0,0,0,0,0,0,0,0,0,0,0,0,0,0,0,0,0,0,0,0,0,0],"sum_hessian":[4.873E3,3.776E3,1.097E3,1.781E3,1.995E3,3.79E2,7.18E2,1.013E3,7.68E2,5.63E2,1.432E3,1.1E2,2.69E2,2.86E2,4.32E2,5.21E2,4.92E2,5.62E2,2.06E2,2.18E2,3.45E2,3.87E2,1.045E3,7.2E1,3.8E1,1.12E2,1.57E2,7.1E1,2.15E2,2.29E2,2.03E2],"tree_param":{"num_deleted":"0","num_feature":"2","num_nodes":"31","size_leaf_vector":"1"}},{"base_weights":[-1.3176132E-3,4.4504132E-2,-1.589382E-1,1.7612916E-1,-7.30311E-2,-4.5470625E-1,-2.400241E-3,-8.024013E-2,5.1394755E-1,-3.1726232E-1,1.2334159E-2,-1.0375209E0,-2.1342057E-1,4.8851344E-1,-3.277809E-1,-5.6831486E-4,-3.2198064E-2,9.299331E-2,-2.3669524E-2,-2.1987516E-2,-9.910951E-2,-2.8702138E-2,1.3681534E-2,-8.505779E-2,-1.360837E-1,2.5238061E-2,-5.4520607E-2,1.3347124E-1,2.0418556E-2,-1.5040278E-2,-5.261593E-2],"categories":[],"categories_nodes":[],"categories_segments":[],"categories_sizes":[],"default_left":[0,0,0,0,0,0,0,0,0,0,0,0,0,0,0,0,0,0,0,0,0,0,0,0,0,0,0,0,0,0,0],"id":38,"left_children":[1,3,5,7,9,11,13,15,17,19,21,23,25,27,29,-1,-1,-1,-1,-1,-1,-1,-1,-1,-1,-1,-1,-1,-1,-1,-1],"loss_changes":[3.5209297E1,5.8445232E1,5.0835133E1,1.543736E2,4.1618244E1,5.321601E1,1.1500874E2,1.8273941E1,2.4034535E2,3.3709003E1,5.5190186E1,5.5515366E0,4.1865036E1,6.877908E1,1.5157265E1,0E0,0E0,0E0,0E0,0E0,0E0,0E0,0E0,0E0,0E0,0E0,0E0,0E0,0E0,0E0,0E0],"parents":[2147483647,0,0,1,1,2,2,3,3,4,4,5,5,6,6,7,7,8,8,9,9,10,10,11,11,12,12,13,13,14,14],"right_children":[2,4,6,8,10,12,14,16,18,20,22,24,26,28,30,-1,-1,-1,-1,-1,-1,-1,-1,-1,-1,-1,-1,-1,-1,-1,-1],"split_conditions":[2E1,5E0,4E0,1.3E1,8E0,2.1E1,6E0,1E1,1.8E1,7E0,6E0,3E0,2.2E1,2.1E1,7E0,-5.6831486E-4,-3.2198064E-2,9.299331E-2,-2.3669524E-2,-2.1987516E-2,-9.910951E-2,-2.8702138E-2,1.3681534E-2,-8.505779E-2,-1.360837E-1,2.5238061E-2,-5.4520607E-2,1.3347124E-1,2.0418556E-2,-1.5040278E-2,-5.261593E-2],"split_indices":[1,0,0,1,1,1,0,1,1,1,0,0,1,1,0,0,0,0,0,0,0,0,0,0,0,0,0,0,0,0,0],"split_type":[0,0,0,0,0,0,0,0,0,0,0,0,0,0,0,0,0,0,0,0,0,0,0,0,0,0,0,0,0,0,0],"sum_hessian":[4.873E3,3.776E3,1.097E3,1.781E3,1.995E3,3.79E2,7.18E2,1.013E3,7.68E2,5.16E2,1.479E3,1.1E2,2.69E2,2.86E2,4.32E2,7.75E2,2.38E2,4.94E2,2.74E2,4.52E2,6.4E1,4.34E2,1.045E3,7.2E1,3.8E1,1.12E2,1.57E2,7.1E1,2.15E2,2.29E2,2.03E2],"tree_param":{"num_deleted":"0","num_feature":"2","num_nodes":"31","size_leaf_vector":"1"}},{"base_weights":[-1.2398885E-3,4.0027425E-2,-1.431938E-1,1.5853694E-1,-6.579622E-2,-4.098946E-1,-2.0401322E-3,-7.224841E-2,4.6264333E-1,-1.0406567E-1,4.5020893E-1,-1.952868E-1,-9.5562017E-1,4.4019854E-1,-2.9515898E-1,-1.9731518E-2,6.0321772E-3,1.3890502E-2,1.340914E-1,-2.9188005E-2,-2.695298E-3,8.519841E-2,5.906919E-3,-7.666848E-2,1.2175281E-3,-1.3890311E-1,-3.5068326E-2,1.2030945E-1,1.8386194E-2,-1.3542785E-2,-4.7380116E-2],"categories":[],"categories_nodes":[],"categories_segments":[],"categories_sizes":[],"default_left":[0,0,0,0,0,0,0,0,0,0,0,0,0,0,0,0,0,0,0,0,0,0,0,0,0,0,0,0,0,0,0],"id":39,"left_children":[1,3,5,7,9,11,13,15,17,19,21,23,25,27,29,-1,-1,-1,-1,-1,-1,-1,-1,-1,-1,-1,-1,-1,-1,-1,-1],"loss_changes":[2.8557898E1,4.7378197E1,4.1334244E1,1.2510006E2,3.946233E1,4.4317825E1,9.333282E1,1.6824146E1,2.184634E2,2.6915794E1,2.1636406E1,3.249023E1,2.7566818E1,5.590399E1,1.2291363E1,0E0,0E0,0E0,0E0,0E0,0E0,0E0,0E0,0E0,0E0,0E0,0E0,0E0,0E0,0E0,0E0],"parents":[2147483647,0,0,1,1,2,2,3,3,4,4,5,5,6,6,7,7,8,8,9,9,10,10,11,11,12,12,13,13,14,14],"right_children":[2,4,6,8,10,12,14,16,18,20,22,24,26,28,30,-1,-1,-1,-1,-1,-1,-1,-1,-1,-1,-1,-1,-1,-1,-1,-1],"split_conditions":[2E1,5E0,4E0,1.3E1,1.9E1,3E0,6E0,3E0,4E0,6E0,7E0,2.1E1,2.2E1,2.1E1,7E0,-1.9731518E-2,6.0321772E-3,1.3890502E-2,1.340914E-1,-2.9188005E-2,-2.695298E-3,8.519841E-2,5.906919E-3,-7.666848E-2,1.2175281E-3,-1.3890311E-1,-3.5068326E-2,1.2030945E-1,1.8386194E-2,-1.3542785E-2,-4.7380116E-2],"split_indices":[1,0,0,1,1,0,0,0,0,0,0,1,1,1,0,0,0,0,0,0,0,0,0,0,0,0,0,0,0,0,0],"split_type":[0,0,0,0,0,0,0,0,0,0,0,0,0,0,0,0,0,0,0,0,0,0,0,0,0,0,0,0,0,0,0],"sum_hessian":[4.873E3,3.776E3,1.097E3,1.781E3,1.995E3,3.79E2,7.18E2,1.013E3,7.68E2,1.858E3,1.37E2,2.73E2,1.06E2,2.86E2,4.32E2,5.21E2,4.92E2,5.62E2,2.06E2,5.4E2,1.318E3,6.7E1,7E1,7.2E1,2.01E2,6.1E1,4.5E1,7.1E1,2.15E2,2.29E2,2.03E2],"tree_param":{"num_deleted":"0","num_feature":"2","num_nodes":"31","size_leaf_vector":"1"}},{"base_weights":[-1.111578E-3,4.985198E-2,-1.00995764E-1,3.2615608E-1,-4.0566396E-2,-5.439424E-1,1.301823E-1,-1.7762145E-1,1.2812314E0,-2.2328265E-1,4.8085213E-2,-8.7826043E-1,-1.7541617E-1,5.351047E-1,-1.4986575E-1,1.2668989E-2,-6.564491E-2,3.9273728E-2,2.1733442E-1,-1.25701055E-2,-4.538861E-2,2.1703212E-2,-1.840113E-2,-1.11210205E-1,-7.723474E-2,2.5467915E-2,-4.8190575E-2,8.828516E-2,1.6556118E-2,5.745965E-3,-3.55438E-2],"categories":[],"categories_nodes":[],"categories_segments":[],"categories_sizes":[],"default_left":[0,0,0,0,0,0,0,0,0,0,0,0,0,0,0,0,0,0,0,0,0,0,0,0,0,0,0,0,0,0,0],"id":40,"left_children":[1,3,5,7,9,11,13,15,17,19,21,23,25,27,29,-1,-1,-1,-1,-1,-1,-1,-1,-1,-1,-1,-1,-1,-1,-1,-1],"loss_changes":[2.4815905E1,8.065825E1,1.6872285E2,3.8321942E2,3.9420692E1,6.945674E1,1.2288994E2,7.614517E1,2.1712155E2,1.783255E1,6.430838E1,6.472061E0,3.5714058E1,5.6782715E1,2.7340065E1,0E0,0E0,0E0,0E0,0E0,0E0,0E0,0E0,0E0,0E0,0E0,0E0,0E0,0E0,0E0,0E0],"parents":[2147483647,0,0,1,1,2,2,3,3,4,4,5,5,6,6,7,7,8,8,9,9,10,10,11,11,12,12,13,13,14,14],"right_children":[2,4,6,8,10,12,14,16,18,20,22,24,26,28,30,-1,-1,-1,-1,-1,-1,-1,-1,-1,-1,-1,-1,-1,-1,-1,-1],"split_conditions":[1.8E1,3E0,4E0,1.3E1,8E0,2.1E1,6E0,8E0,2E0,5E0,1.4E1,1.9E1,2.2E1,2.1E1,7E0,1.2668989E-2,-6.564491E-2,3.9273728E-2,2.1733442E-1,-1.25701055E-2,-4.538861E-2,2.1703212E-2,-1.840113E-2,-1.11210205E-1,-7.723474E-2,2.5467915E-2,-4.8190575E-2,8.828516E-2,1.6556118E-2,5.745965E-3,-3.55438E-2],"split_indices":[1,0,0,1,1,1,0,1,0,1,1,1,1,1,0,0,0,0,0,0,0,0,0,0,0,0,0,0,0,0,0],"split_type":[0,0,0,0,0,0,0,0,0,0,0,0,0,0,0,0,0,0,0,0,0,0,0,0,0,0,0,0,0,0,0],"sum_hessian":[4.873E3,3.227E3,1.646E3,7.95E2,2.432E3,5.64E2,1.082E3,5.21E2,2.74E2,7.94E2,1.638E3,2.95E2,2.69E2,4.42E2,6.4E2,3.19E2,2.02E2,1.38E2,1.36E2,5.59E2,2.35E2,9.48E2,6.9E2,8.9E1,2.06E2,1.12E2,1.57E2,2.27E2,2.15E2,3.19E2,3.21E2],"tree_param":{"num_deleted":"0","num_feature":"2","num_nodes":"31","size_leaf_vector":"1"}},{"base_weights":[-9.980574E-4,2.8275497E-2,-1.4470339E-1,-1.0611263E-1,8.343404E-2,-2.154046E-2,-3.194521E-1,2.5638956E-1,-1.7340589E-1,-2.9441E-1,1.347962E-1,-1.725056E-1,4.7127157E-1,-6.187107E-1,-1.2512472E-1,-1.3572104E-2,8.878871E-2,-9.442509E-3,-2.2929017E-2,1.6166104E-2,-9.681957E-2,4.4914942E-2,8.840184E-3,2.4041058E-2,-4.588859E-2,5.0789893E-2,2.950163E-2,-8.556027E-2,-1.7645415E-2,1.6221847E-2,-3.7286725E-2],"categories":[],"categories_nodes":[],"categories_segments":[],"categories_sizes":[],"default_left":[0,0,0,0,0,0,0,0,0,0,0,0,0,0,0,0,0,0,0,0,0,0,0,0,0,0,0,0,0,0,0],"id":41,"left_children":[1,3,5,7,9,11,13,15,17,19,21,23,25,27,29,-1,-1,-1,-1,-1,-1,-1,-1,-1,-1,-1,-1,-1,-1,-1,-1],"loss_changes":[2.050787E1,3.00301E1,1.7749233E1,2.880493E1,5.577626E1,3.6164055E1,1.9753147E1,4.592963E1,4.370064E0,1.0586571E2,3.6843784E1,4.4099716E1,5.861168E-1,1.3887806E1,1.4867409E1,0E0,0E0,0E0,0E0,0E0,0E0,0E0,0E0,0E0,0E0,0E0,0E0,0E0,0E0,0E0,0E0],"parents":[2147483647,0,0,1,1,2,2,3,3,4,4,5,5,6,6,7,7,8,8,9,9,10,10,11,11,12,12,13,13,14,14],"right_children":[2,4,6,8,10,12,14,16,18,20,22,24,26,28,30,-1,-1,-1,-1,-1,-1,-1,-1,-1,-1,-1,-1,-1,-1,-1,-1],"split_conditions":[2.1E1,9E0,6E0,2E0,2E0,5E0,2.2E1,4E0,5E0,1.7E1,3E0,2.2E1,2.3E1,7E0,2.3E1,-1.3572104E-2,8.878871E-2,-9.442509E-3,-2.2929017E-2,1.6166104E-2,-9.681957E-2,4.4914942E-2,8.840184E-3,2.4041058E-2,-4.588859E-2,5.0789893E-2,2.950163E-2,-8.556027E-2,-1.7645415E-2,1.6221847E-2,-3.7286725E-2],"split_indices":[1,1,0,0,0,0,1,1,0,1,0,1,1,0,1,0,0,0,0,0,0,0,0,0,0,0,0,0,0,0,0],"split_type":[0,0,0,0,0,0,0,0,0,0,0,0,0,0,0,0,0,0,0,0,0,0,0,0,0,0,0,0,0,0,0],"sum_hessian":[4.873E3,4.049E3,8.24E2,1.178E3,2.871E3,4.84E2,3.4E2,1.84E2,9.94E2,3.43E2,2.528E3,3.71E2,1.13E2,1.33E2,2.07E2,1.14E2,7E1,4.13E2,5.81E2,2.05E2,1.38E2,3.24E2,2.204E3,1.52E2,2.19E2,9.2E1,2.1E1,8.6E1,4.7E1,9.6E1,1.11E2],"tree_param":{"num_deleted":"0","num_feature":"2","num_nodes":"31","size_leaf_vector":"1"}},{"base_weights":[-9.0861105E-4,2.9420279E-2,-1.249142E-1,-7.050486E-2,1.0760127E-1,-2.7950722E-1,2.146564E-2,1.2745899E-1,-4.754176E-1,3.9645678E-1,7.1792845E-3,-1.367471E-1,-1.5799963E-1,1.4084429E0,-2.5868174E-1,-1.1400865E-2,5.4615825E-2,-7.786284E-2,-1.41248E-2,1.305215E-3,7.731129E-2,-1.2803437E-2,2.7487934E-2,-3.1341884E-2,3.7817575E-2,9.575879E-3,2.8171843E-1,1.840122E-2,-3.1361412E-2],"categories":[],"categories_nodes":[],"categories_segments":[],"categories_sizes":[],"default_left":[0,0,0,0,0,0,0,0,0,0,0,0,0,0,0,0,0,0,0,0,0,0,0,0,0,0,0,0,0],"id":42,"left_children":[1,3,5,7,9,11,13,15,17,19,21,23,-1,25,27,-1,-1,-1,-1,-1,-1,-1,-1,-1,-1,-1,-1,-1,-1],"loss_changes":[1.8334553E1,3.0608158E1,2.1684868E1,1.379325E2,6.3755516E1,8.630056E1,1.9192346E2,1.1693654E2,5.713797E1,8.187134E1,5.910821E1,3.8417866E1,0E0,1.5321652E2,1.0052498E1,0E0,0E0,0E0,0E0,0E0,0E0,0E0,0E0,0E0,0E0,0E0,0E0,0E0,0E0],"parents":[2147483647,0,0,1,1,2,2,3,3,4,4,5,5,6,6,7,7,8,8,9,9,10,10,11,11,13,13,14,14],"right_children":[2,4,6,8,10,12,14,16,18,20,22,24,-1,26,28,-1,-1,-1,-1,-1,-1,-1,-1,-1,-1,-1,-1,-1,-1],"split_conditions":[7E0,4E0,1.4E1,1.8E1,5E0,1.3E1,1.6E1,1.2E1,2.1E1,1.4E1,1.8E1,1E1,-1.5799963E-1,1.5E1,1.7E1,-1.1400865E-2,5.4615825E-2,-7.786284E-2,-1.41248E-2,1.305215E-3,7.731129E-2,-1.2803437E-2,2.7487934E-2,-3.1341884E-2,3.7817575E-2,9.575879E-3,2.8171843E-1,1.840122E-2,-3.1361412E-2],"split_indices":[0,0,1,1,0,1,1,1,1,1,1,1,0,1,1,0,0,0,0,0,0,0,0,0,0,0,0,0,0],"split_type":[0,0,0,0,0,0,0,0,0,0,0,0,0,0,0,0,0,0,0,0,0,0,0,0,0,0,0,0,0],"sum_hessian":[4.873E3,3.916E3,9.57E2,1.719E3,2.197E3,4.65E2,4.92E2,1.155E3,5.64E2,5.66E2,1.631E3,4.2E2,4.5E1,8.2E1,4.1E2,7.33E2,4.22E2,2.95E2,2.69E2,2.81E2,2.85E2,1.084E3,5.47E2,3.13E2,1.07E2,4.3E1,3.9E1,4.5E1,3.65E2],"tree_param":{"num_deleted":"0","num_feature":"2","num_nodes":"29","size_leaf_vector":"1"}},{"base_weights":[-7.824362E-4,2.736217E-2,-1.3894592E-1,-2.8736748E-2,1.1480675E-1,-3.4095414E-2,-2.87666E-1,8.87942E-3,-6.892077E-1,-1.8064904E-1,2.8352472E-1,-1.6629815E-1,3.9760208E-1,-5.642513E-1,-1.08098224E-1,7.3821E-3,-2.5188146E-2,-1.586615E-1,-1.9647952E-2,2.8517038E-2,-1.18257366E-1,1.2315335E-1,7.1746386E-3,2.0665416E-2,-4.2491365E-2,4.3046307E-2,2.4061706E-2,-7.98198E-2,-1.2846773E-2,1.4929402E-2,-3.3005312E-2],"categories":[],"categories_nodes":[],"categories_segments":[],"categories_sizes":[],"default_left":[0,0,0,0,0,0,0,0,0,0,0,0,0,0,0,0,0,0,0,0,0,0,0,0,0,0,0,0,0,0,0],"id":43,"left_children":[1,3,5,7,9,11,13,15,17,19,21,23,25,27,29,-1,-1,-1,-1,-1,-1,-1,-1,-1,-1,-1,-1,-1,-1,-1,-1],"loss_changes":[1.8956629E1,1.987076E1,1.2854726E1,6.1322063E1,7.8961716E1,2.7745844E1,1.6875048E1,3.957694E1,5.8497925E1,2.691656E2,2.0228552E2,3.596767E1,4.8451042E-1,1.3558777E1,1.1932205E1,0E0,0E0,0E0,0E0,0E0,0E0,0E0,0E0,0E0,0E0,0E0,0E0,0E0,0E0,0E0,0E0],"parents":[2147483647,0,0,1,1,2,2,3,3,4,4,5,5,6,6,7,7,8,8,9,9,10,10,11,11,12,12,13,13,14,14],"right_children":[2,4,6,8,10,12,14,16,18,20,22,24,26,28,30,-1,-1,-1,-1,-1,-1,-1,-1,-1,-1,-1,-1,-1,-1,-1,-1],"split_conditions":[2.1E1,1.5E1,6E0,1.4E1,4E0,5E0,2.2E1,7E0,6E0,3E0,5E0,2.2E1,2.3E1,7E0,2.3E1,7.3821E-3,-2.5188146E-2,-1.586615E-1,-1.9647952E-2,2.8517038E-2,-1.18257366E-1,1.2315335E-1,7.1746386E-3,2.0665416E-2,-4.2491365E-2,4.3046307E-2,2.4061706E-2,-7.98198E-2,-1.2846773E-2,1.4929402E-2,-3.3005312E-2],"split_indices":[1,1,0,1,0,0,1,0,0,0,0,1,1,0,1,0,0,0,0,0,0,0,0,0,0,0,0,0,0,0,0],"split_type":[0,0,0,0,0,0,0,0,0,0,0,0,0,0,0,0,0,0,0,0,0,0,0,0,0,0,0,0,0,0,0],"sum_hessian":[4.873E3,4.049E3,8.24E2,2.467E3,1.582E3,4.84E2,3.4E2,2.335E3,1.32E2,5.75E2,1.007E3,3.71E2,1.13E2,1.33E2,2.07E2,1.87E3,4.65E2,4.6E1,8.6E1,3.93E2,1.82E2,1.83E2,8.24E2,1.52E2,2.19E2,9.2E1,2.1E1,8.6E1,4.7E1,9.6E1,1.11E2],"tree_param":{"num_deleted":"0","num_feature":"2","num_nodes":"31","size_leaf_vector":"1"}},{"base_weights":[-7.494449E-4,4.6417963E-2,-7.4667014E-2,-2.594226E-2,3.9718145E-1,-4.9622664E-1,-1.1630171E-2,7.9841735E-3,-6.2162805E-1,1.7100192E0,1.8240321E-2,-8.659702E-1,-2.0166248E-2,6.494201E-2,-2.8106552E-1,6.644323E-3,-2.267473E-2,-1.4313298E-1,-1.7705778E-2,1.103568E-1,2.6153874E-1,-2.649049E-1,4.653499E-2,-1.18580475E-1,-7.0024304E-2,4.9838156E-2,-3.7885066E-2,2.0900482E-2,-1.2449949E-2,-4.341134E-2,-2.2809286E-2],"categories":[],"categories_nodes":[],"categories_segments":[],"categories_sizes":[],"default_left":[0,0,0,0,0,0,0,0,0,0,0,0,0,0,0,0,0,0,0,0,0,0,0,0,0,0,0,0,0,0,0],"id":44,"left_children":[1,3,5,7,9,11,13,15,17,19,21,23,25,27,29,-1,-1,-1,-1,-1,-1,-1,-1,-1,-1,-1,-1,-1,-1,-1,-1],"loss_changes":[1.6996668E1,7.554513E1,5.045785E1,4.9881996E1,2.531903E2,4.3459545E1,3.412171E1,3.2070076E1,4.76225E1,5.9706787E1,4.7349066E2,6.5373764E0,2.0462267E1,3.517744E1,2.8682728E0,0E0,0E0,0E0,0E0,0E0,0E0,0E0,0E0,0E0,0E0,0E0,0E0,0E0,0E0,0E0,0E0],"parents":[2147483647,0,0,1,1,2,2,3,3,4,4,5,5,6,6,7,7,8,8,9,9,10,10,11,11,12,12,13,13,14,14],"right_children":[2,4,6,8,10,12,14,16,18,20,22,24,26,28,30,-1,-1,-1,-1,-1,-1,-1,-1,-1,-1,-1,-1,-1,-1,-1,-1],"split_conditions":[1.7E1,1.5E1,2E0,1.4E1,3E0,2.1E1,7E0,7E0,6E0,2E0,4E0,1.8E1,2.2E1,2.1E1,1.9E1,6.644323E-3,-2.267473E-2,-1.4313298E-1,-1.7705778E-2,1.103568E-1,2.6153874E-1,-2.649049E-1,4.653499E-2,-1.18580475E-1,-7.0024304E-2,4.9838156E-2,-3.7885066E-2,2.0900482E-2,-1.2449949E-2,-4.341134E-2,-2.2809286E-2],"split_indices":[1,1,0,1,0,1,0,0,0,0,0,1,1,1,1,0,0,0,0,0,0,0,0,0,0,0,0,0,0,0,0],"split_type":[0,0,0,0,0,0,0,0,0,0,0,0,0,0,0,0,0,0,0,0,0,0,0,0,0,0,0,0,0,0,0],"sum_hessian":[4.873E3,2.975E3,1.898E3,2.467E3,5.08E2,2.46E2,1.652E3,2.335E3,1.32E2,1.13E2,3.95E2,1.38E2,1.08E2,1.287E3,3.65E2,1.87E3,4.65E2,4.6E1,8.6E1,6.9E1,4.4E1,5.6E1,3.39E2,4.5E1,9.3E1,4.4E1,6.4E1,7.31E2,5.56E2,9.2E1,2.73E2],"tree_param":{"num_deleted":"0","num_feature":"2","num_nodes":"31","size_leaf_vector":"1"}},{"base_weights":[-7.2769244E-4,4.1767877E-2,-6.732384E-2,-2.3420125E-2,3.577644E-1,-4.4731924E-1,-1.0502194E-2,7.178434E-3,-5.6067437E-1,1.542279E0,1.5864296E-2,-7.807301E-1,-1.8040014E-2,5.845428E-2,-2.5314E-1,5.980192E-3,-2.0412141E-2,-1.2912421E-1,-1.5955536E-2,9.947873E-2,2.3596601E-1,-2.3887923E-1,4.1895125E-2,-1.06980264E-1,-6.3096344E-2,4.49651E-2,-3.4154855E-2,1.8813265E-2,-1.1207178E-2,-3.911689E-2,-2.053669E-2],"categories":[],"categories_nodes":[],"categories_segments":[],"categories_sizes":[],"default_left":[0,0,0,0,0,0,0,0,0,0,0,0,0,0,0,0,0,0,0,0,0,0,0,0,0,0,0,0,0,0,0],"id":45,"left_children":[1,3,5,7,9,11,13,15,17,19,21,23,25,27,29,-1,-1,-1,-1,-1,-1,-1,-1,-1,-1,-1,-1,-1,-1,-1,-1],"loss_changes":[1.3796433E1,6.1311546E1,4.099844E1,4.057599E1,2.0611325E2,3.533813E1,2.7671877E1,2.598697E1,3.8768906E1,4.866873E1,3.8483795E2,5.342781E0,1.66455E1,2.8503326E1,2.3330975E0,0E0,0E0,0E0,0E0,0E0,0E0,0E0,0E0,0E0,0E0,0E0,0E0,0E0,0E0,0E0,0E0],"parents":[2147483647,0,0,1,1,2,2,3,3,4,4,5,5,6,6,7,7,8,8,9,9,10,10,11,11,12,12,13,13,14,14],"right_children":[2,4,6,8,10,12,14,16,18,20,22,24,26,28,30,-1,-1,-1,-1,-1,-1,-1,-1,-1,-1,-1,-1,-1,-1,-1,-1],"split_conditions":[1.7E1,1.5E1,2E0,1.4E1,3E0,2.1E1,7E0,7E0,6E0,2E0,4E0,1.8E1,2.2E1,2.1E1,1.9E1,5.980192E-3,-2.0412141E-2,-1.2912421E-1,-1.5955536E-2,9.947873E-2,2.3596601E-1,-2.3887923E-1,4.1895125E-2,-1.06980264E-1,-6.3096344E-2,4.49651E-2,-3.4154855E-2,1.8813265E-2,-1.1207178E-2,-3.911689E-2,-2.053669E-2],"split_indices":[1,1,0,1,0,1,0,0,0,0,0,1,1,1,1,0,0,0,0,0,0,0,0,0,0,0,0,0,0,0,0],"split_type":[0,0,0,0,0,0,0,0,0,0,0,0,0,0,0,0,0,0,0,0,0,0,0,0,0,0,0,0,0,0,0],"sum_hessian":[4.873E3,2.975E3,1.898E3,2.467E3,5.08E2,2.46E2,1.652E3,2.335E3,1.32E2,1.13E2,3.95E2,1.38E2,1.08E2,1.287E3,3.65E2,1.87E3,4.65E2,4.6E1,8.6E1,6.9E1,4.4E1,5.6E1,3.39E2,4.5E1,9.3E1,4.4E1,6.4E1,7.31E2,5.56E2,9.2E1,2.73E2],"tree_param":{"num_deleted":"0","num_feature":"2","num_nodes":"31","size_leaf_vector":"1"}},{"base_weights":[-7.024797E-4,-2.0522372E-1,1.2375964E-2,3.8220823E-2,-3.0654958E-1,6.40765E-2,-6.0702823E-2,-1.2072219E-1,5.4350466E-2,-5.597845E-1,-2.3475744E-1,3.653921E-3,3.222601E-1,-4.032324E-1,-9.483519E-3,-5.262171E-3,-2.3302613E-2,-1.7106889E-2,-9.241616E-2,-1.8824615E-2,-5.2429598E-2,3.6794916E-3,-5.0569832E-2,1.3909931E-1,1.3780753E-3,-7.038812E-2,-1.6136857E-3,5.2614687E-3,-2.27989E-2],"categories":[],"categories_nodes":[],"categories_segments":[],"categories_sizes":[],"default_left":[0,0,0,0,0,0,0,0,0,0,0,0,0,0,0,0,0,0,0,0,0,0,0,0,0,0,0,0,0],"id":46,"left_children":[1,3,5,7,9,11,13,15,-1,17,19,21,23,25,27,-1,-1,-1,-1,-1,-1,-1,-1,-1,-1,-1,-1,-1,-1],"loss_changes":[1.3039611E1,7.239215E0,1.7315659E1,7.052699E0,3.6319008E0,4.1869545E1,3.3312473E1,5.0015044E-1,0E0,6.215661E0,2.0963936E0,3.6750446E1,1.67789E2,2.8734447E1,2.2441216E1,0E0,0E0,0E0,0E0,0E0,0E0,0E0,0E0,0E0,0E0,0E0,0E0,0E0,0E0],"parents":[2147483647,0,0,1,1,2,2,3,3,4,4,5,5,6,6,7,7,9,9,10,10,11,11,12,12,13,13,14,14],"right_children":[2,4,6,8,10,12,14,16,-1,18,20,22,24,26,28,-1,-1,-1,-1,-1,-1,-1,-1,-1,-1,-1,-1,-1,-1],"split_conditions":[2E0,1E0,1.7E1,7E0,3E0,1.5E1,2E0,6E0,5.4350466E-2,2E0,7E0,1.4E1,3E0,2.1E1,7E0,-5.262171E-3,-2.3302613E-2,-1.7106889E-2,-9.241616E-2,-1.8824615E-2,-5.2429598E-2,3.6794916E-3,-5.0569832E-2,1.3909931E-1,1.3780753E-3,-7.038812E-2,-1.6136857E-3,5.2614687E-3,-2.27989E-2],"split_indices":[1,1,1,0,0,1,0,0,0,0,0,1,0,1,0,0,0,0,0,0,0,0,0,0,0,0,0,0,0],"split_type":[0,0,0,0,0,0,0,0,0,0,0,0,0,0,0,0,0,0,0,0,0,0,0,0,0,0,0,0,0],"sum_hessian":[4.873E3,2.92E2,4.581E3,8.6E1,2.06E2,2.683E3,1.898E3,6.6E1,2E1,4.4E1,1.62E2,2.175E3,5.08E2,2.46E2,1.652E3,4.2E1,2.4E1,2.2E1,2.2E1,1.41E2,2.1E1,2.043E3,1.32E2,1.13E2,3.95E2,1.38E2,1.08E2,1.287E3,3.65E2],"tree_param":{"num_deleted":"0","num_feature":"2","num_nodes":"29","size_leaf_vector":"1"}},{"base_weights":[-6.6327385E-4,-6.48808E-2,3.4346174E-2,9.136829E-2,-3.8445437E-1,2.9365712E-1,-2.245709E-2,-1.2105271E-1,4.597504E-1,-6.446324E-1,-9.779826E-2,-7.0384055E-2,5.5154884E-1,-1.8657678E-1,1.8484706E-2,3.23575E-3,-7.6084994E-2,8.706039E-2,-4.9394004E-2,-8.464671E-2,-5.5376407E-2,8.132895E-3,-6.2078226E-2,1.3007032E-2,-4.61366E-1,1.2478588E-1,-1.2742373E-2,-3.8955477E-3,-5.5787563E-2,3.629074E-2,-4.1824128E-3],"categories":[],"categories_nodes":[],"categories_segments":[],"categories_sizes":[],"default_left":[0,0,0,0,0,0,0,0,0,0,0,0,0,0,0,0,0,0,0,0,0,0,0,0,0,0,0,0,0,0,0],"id":47,"left_children":[1,3,5,7,9,11,13,15,17,19,21,23,25,27,29,-1,-1,-1,-1,-1,-1,-1,-1,-1,-1,-1,-1,-1,-1,-1,-1],"loss_changes":[1.0960053E1,8.592001E1,4.6478825E1,9.051509E1,4.2075577E1,5.3270596E1,1.7399858E1,7.206776E1,1.6617285E2,4.9600143E0,2.5344269E1,2.1552989E2,1.5712042E2,2.8315876E1,4.3074974E1,0E0,0E0,0E0,0E0,0E0,0E0,0E0,0E0,0E0,0E0,0E0,0E0,0E0,0E0,0E0,0E0],"parents":[2147483647,0,0,1,1,2,2,3,3,4,4,5,5,6,6,7,7,8,8,9,9,10,10,11,11,12,12,13,13,14,14],"right_children":[2,4,6,8,10,12,14,16,18,20,22,24,26,28,30,-1,-1,-1,-1,-1,-1,-1,-1,-1,-1,-1,-1,-1,-1,-1,-1],"split_conditions":[4E0,1.8E1,5E0,1.2E1,2.1E1,1.3E1,8E0,1E1,3E0,1.9E1,3E0,1.2E1,1.9E1,5E0,1.1E1,3.23575E-3,-7.6084994E-2,8.706039E-2,-4.9394004E-2,-8.464671E-2,-5.5376407E-2,8.132895E-3,-6.2078226E-2,1.3007032E-2,-4.61366E-1,1.2478588E-1,-1.2742373E-2,-3.8955477E-3,-5.5787563E-2,3.629074E-2,-4.1824128E-3],"split_indices":[0,1,0,1,1,1,1,1,0,1,0,1,1,1,1,0,0,0,0,0,0,0,0,0,0,0,0,0,0,0,0],"split_type":[0,0,0,0,0,0,0,0,0,0,0,0,0,0,0,0,0,0,0,0,0,0,0,0,0,0,0,0,0,0,0],"sum_hessian":[4.873E3,1.719E3,3.154E3,1.155E3,5.64E2,5.66E2,2.588E3,7.33E2,4.22E2,2.95E2,2.69E2,2.35E2,3.31E2,5.16E2,2.072E3,5.92E2,1.41E2,2.95E2,1.27E2,8.9E1,2.06E2,2.01E2,6.8E1,2.26E2,9E0,1.63E2,1.68E2,3.7E2,1.46E2,3.08E2,1.764E3],"tree_param":{"num_deleted":"0","num_feature":"2","num_nodes":"31","size_leaf_vector":"1"}},{"base_weights":[-7.1851624E-4,-1.8677625E-1,1.1179265E-2,3.666083E-2,-2.797823E-1,2.0985464E-2,-2.3885839E-1,-1.0768678E-1,4.954527E-2,-5.0940377E-1,-2.146734E-1,-3.5982758E-2,5.2929427E-2,-3.4229127E-1,-5.735099E-3,-4.7491197E-3,-2.0691572E-2,-1.5780104E-2,-8.388585E-2,-1.7352175E-2,-4.705308E-2,1.2244677E-2,-3.3937905E-2,3.4132045E-2,-9.3609915E-4,-2.1829816E-2,-4.92195E-2],"categories":[],"categories_nodes":[],"categories_segments":[],"categories_sizes":[],"default_left":[0,0,0,0,0,0,0,0,0,0,0,0,0,0,0,0,0,0,0,0,0,0,0,0,0,0,0],"id":48,"left_children":[1,3,5,7,9,11,13,15,-1,17,19,21,23,25,-1,-1,-1,-1,-1,-1,-1,-1,-1,-1,-1,-1,-1],"loss_changes":[1.0791535E1,6.0990887E0,1.1239706E1,5.8149734E0,2.9853783E0,8.027183E0,3.228242E0,3.9037406E-1,0E0,5.0802994E0,1.6345725E0,7.6227646E1,5.0769455E1,1.9371262E0,0E0,0E0,0E0,0E0,0E0,0E0,0E0,0E0,0E0,0E0,0E0,0E0,0E0],"parents":[2147483647,0,0,1,1,2,2,3,3,4,4,5,5,6,6,7,7,9,9,10,10,11,11,12,12,13,13],"right_children":[2,4,6,8,10,12,14,16,-1,18,20,22,24,26,-1,-1,-1,-1,-1,-1,-1,-1,-1,-1,-1,-1,-1],"split_conditions":[2E0,1E0,2.3E1,7E0,3E0,4E0,7E0,6E0,4.954527E-2,2E0,7E0,1.8E1,5E0,6E0,-5.735099E-3,-4.7491197E-3,-2.0691572E-2,-1.5780104E-2,-8.388585E-2,-1.7352175E-2,-4.705308E-2,1.2244677E-2,-3.3937905E-2,3.4132045E-2,-9.3609915E-4,-2.1829816E-2,-4.92195E-2],"split_indices":[1,1,1,0,0,0,0,0,0,0,0,1,0,0,0,0,0,0,0,0,0,0,0,0,0,0,0],"split_type":[0,0,0,0,0,0,0,0,0,0,0,0,0,0,0,0,0,0,0,0,0,0,0,0,0,0,0],"sum_hessian":[4.873E3,2.92E2,4.581E3,8.6E1,2.06E2,4.409E3,1.72E2,6.6E1,2E1,4.4E1,1.62E2,1.584E3,2.825E3,1.09E2,6.3E1,4.2E1,2.4E1,2.2E1,2.2E1,1.41E2,2.1E1,1.041E3,5.43E2,5.01E2,2.324E3,6.1E1,4.8E1],"tree_param":{"num_deleted":"0","num_feature":"2","num_nodes":"27","size_leaf_vector":"1"}},{"base_weights":[-6.8871427E-4,-9.760925E-2,1.8595448E-2,-1.7879614E-1,-4.328382E-2,6.857451E-2,-3.847311E-2,-3.8335394E-2,-2.8149554E-1,-1.11425586E-1,-3.5414186E-3,1.2020784E-2,2.5287825E-1,-3.3444834E-1,5.7763443E-3,-1.4045333E-2,4.5257702E-2,-3.8407873E-2,-1.8441409E-2,5.2902806E-3,-2.0112896E-2,2.0900823E-2,-4.165704E-3,5.2265353E-3,-4.504282E-2,1.1546792E-1,-7.3696824E-4,-9.934376E-2,-1.8272579E-2,6.4052762E-3,-1.9932147E-2],"categories":[],"categories_nodes":[],"categories_segments":[],"categories_sizes":[],"default_left":[0,0,0,0,0,0,0,0,0,0,0,0,0,0,0,0,0,0,0,0,0,0,0,0,0,0,0,0,0,0,0],"id":49,"left_children":[1,3,5,7,9,11,13,15,17,19,21,23,25,27,29,-1,-1,-1,-1,-1,-1,-1,-1,-1,-1,-1,-1,-1,-1,-1,-1],"loss_changes":[9.111475E0,3.5603662E0,1.1599818E1,4.662986E0,1.3157506E0,2.2594164E1,2.4872646E1,6.9816394E0,1.7914896E0,2.6492453E0,2.5039568E0,3.0917898E1,1.1946666E2,2.4514399E1,1.9770025E1,0E0,0E0,0E0,0E0,0E0,0E0,0E0,0E0,0E0,0E0,0E0,0E0,0E0,0E0,0E0,0E0],"parents":[2147483647,0,0,1,1,2,2,3,3,4,4,5,5,6,6,7,7,8,8,9,9,10,10,11,11,12,12,13,13,14,14],"right_children":[2,4,6,8,10,12,14,16,18,20,22,24,26,28,30,-1,-1,-1,-1,-1,-1,-1,-1,-1,-1,-1,-1,-1,-1,-1,-1],"split_conditions":[6E0,4E0,1.7E1,2E0,2E0,1.5E1,2E0,4E0,3E0,1E0,5E0,1.4E1,3E0,1.8E1,7E0,-1.4045333E-2,4.5257702E-2,-3.8407873E-2,-1.8441409E-2,5.2902806E-3,-2.0112896E-2,2.0900823E-2,-4.165704E-3,5.2265353E-3,-4.504282E-2,1.1546792E-1,-7.3696824E-4,-9.934376E-2,-1.8272579E-2,6.4052762E-3,-1.9932147E-2],"split_indices":[1,0,1,0,1,1,0,1,0,1,0,1,0,1,0,0,0,0,0,0,0,0,0,0,0,0,0,0,0,0,0],"split_type":[0,0,0,0,0,0,0,0,0,0,0,0,0,0,0,0,0,0,0,0,0,0,0,0,0,0,0,0,0,0,0],"sum_hessian":[4.873E3,8.08E2,4.065E3,3.23E2,4.85E2,2.167E3,1.898E3,1.37E2,1.86E2,1.78E2,3.07E2,1.659E3,5.08E2,2.46E2,1.652E3,1.14E2,2.3E1,8.9E1,9.7E1,6.3E1,1.15E2,4.6E1,2.61E2,1.527E3,1.32E2,1.13E2,3.95E2,4.5E1,2.01E2,1.287E3,3.65E2],"tree_param":{"num_deleted":"0","num_feature":"2","num_nodes":"31","size_leaf_vector":"1"}}]},"name":"gbtree"},"learner_model_param":{"base_score":"[1.3690334E1]","boost_from_average":"1","num_class":"0","num_feature":"2","num_target":"1"},"objective":{"name":"reg:squarederror","reg_loss_param":{"scale_pos_weight":"1"}}},"version":[3,2,0]}